{"learner":{"attributes":{"best_iteration":"37","best_score":"0.4875687151402235"},"feature_names":[],"feature_types":[],"gradient_booster":{"model":{"cats":{"enc":[],"feature_segments":[],"sorted_idx":[]},"gbtree_model_param":{"num_parallel_tree":"1","num_trees":"68"},"iteration_indptr":[0,1,2,3,4,5,6,7,8,9,10,11,12,13,14,15,16,17,18,19,20,21,22,23,24,25,26,27,28,29,30,31,32,33,34,35,36,37,38,39,40,41,42,43,44,45,46,47,48,49,50,51,52,53,54,55,56,57,58,59,60,61,62,63,64,65,66,67,68],"tree_info":[0,0,0,0,0,0,0,0,0,0,0,0,0,0,0,0,0,0,0,0,0,0,0,0,0,0,0,0,0,0,0,0,0,0,0,0,0,0,0,0,0,0,0,0,0,0,0,0,0,0,0,0,0,0,0,0,0,0,0,0,0,0,0,0,0,0,0,0],"trees":[{"base_weights":[-1.2745139E-2,-9.944702E-1,7.398642E-1,-1.5661329E0,-4.2169094E-1,1.0273259E0,3.5404122E-1,-9.745025E-1,-1.9352902E-1,-1.0911498E-1,-7.039479E-1,5.45965E-1,1.1558046E-1,8.200067E-2,6.619212E-1,-1.0523378E-1,-2.2400144E-2,-3.246174E-2,4.136273E-2,-1.1432959E-1,-4.799341E-2,1.1314829E-1,-3.684614E-2,3.542591E-2,-4.7196567E-2,1.01411454E-1,1.106976E-2],"categories":[],"categories_nodes":[],"categories_segments":[],"categories_sizes":[],"default_left":[0,0,0,0,0,0,0,0,0,0,0,0,0,0,0,0,0,0,0,0,0,0,0,0,0,0,0],"id":0,"left_children":[1,3,5,7,9,11,13,15,-1,17,19,21,-1,23,25,-1,-1,-1,-1,-1,-1,-1,-1,-1,-1,-1,-1],"loss_changes":[5.8272438E1,1.0544197E1,4.588772E0,1.7740479E0,1.5519764E0,9.189606E-1,1.6703234E0,2.5806236E-1,0E0,1.2544433E0,3.8803053E-1,4.2586927E0,0E0,1.9880835E0,1.7354898E0,0E0,0E0,0E0,0E0,0E0,0E0,0E0,0E0,0E0,0E0,0E0,0E0],"parents":[2147483647,0,0,1,1,2,2,3,3,4,4,5,5,6,6,7,7,9,9,10,10,11,11,13,13,14,14],"right_children":[2,4,6,8,10,12,14,16,-1,18,20,22,-1,24,26,-1,-1,-1,-1,-1,-1,-1,-1,-1,-1,-1,-1],"split_conditions":[2.6776382E-1,1.2036403E-1,1E0,1E0,1.9791137E-1,3.5399503E-1,4.821076E-1,1.0578262E-1,-1.9352902E-1,1.8384635E-1,2.1675843E-1,3.246863E-1,1.1558046E-1,4.0588272E-1,1E0,-1.0523378E-1,-2.2400144E-2,-3.246174E-2,4.136273E-2,-1.1432959E-1,-4.799341E-2,1.1314829E-1,-3.684614E-2,3.542591E-2,-4.7196567E-2,1.01411454E-1,1.106976E-2],"split_indices":[0,0,1,1,0,0,0,0,0,0,0,0,0,0,2,0,0,0,0,0,0,0,0,0,0,0,0],"split_type":[0,0,0,0,0,0,0,0,0,0,0,0,0,0,0,0,0,0,0,0,0,0,0,0,0,0,0],"sum_hessian":[7.6872696E1,3.3219223E1,4.365347E1,1.5757837E1,1.7461388E1,2.4062643E1,1.9590824E1,7.453031E0,8.304806E0,8.943638E0,8.51775E0,6.175369E0,1.7887276E1,1.1073075E1,8.51775E0,6.3883123E0,1.0647187E0,6.6012564E0,2.3423812E0,1.4906062E0,7.0271435E0,3.6200438E0,2.555325E0,7.665975E0,3.4071E0,4.6847625E0,3.8329875E0],"tree_param":{"num_deleted":"0","num_feature":"4","num_nodes":"27","size_leaf_vector":"1"}},{"base_weights":[1.37645295E-2,-1.1854632E0,4.3892947E-1,-1.3513901E0,-4.6471316E-1,-3.698873E-2,7.2006845E-1,-8.588379E-1,-1.6975227E-1,8.905752E-2,-8.7646894E-2,3.097708E-1,-3.850967E-1,1.0046015E-1,4.1293895E-1,-5.051888E-2,-1.373338E-1,-1.3508016E-2,2.7541572E-2,-2.167545E-3,6.596636E-2,-1.2519014E-2,-6.0370307E-2,7.932602E-2,-4.3274867E-3],"categories":[],"categories_nodes":[],"categories_segments":[],"categories_sizes":[],"default_left":[0,0,0,0,0,0,0,0,0,0,0,0,0,0,0,0,0,0,0,0,0,0,0,0,0],"id":1,"left_children":[1,3,5,7,9,11,13,15,-1,17,-1,19,21,-1,23,-1,-1,-1,-1,-1,-1,-1,-1,-1,-1],"loss_changes":[4.0150703E1,1.8372803E0,7.8020134E0,1.3095493E0,1.3051841E0,2.839075E0,2.7818947E0,8.934312E-1,0E0,1.7098513E-1,0E0,1.387607E0,5.8860075E-1,0E0,3.3812504E0,0E0,0E0,0E0,0E0,0E0,0E0,0E0,0E0,0E0,0E0],"parents":[2147483647,0,0,1,1,2,2,3,3,4,4,5,5,6,6,7,7,9,9,11,11,12,12,14,14],"right_children":[2,4,6,8,10,12,14,16,-1,18,-1,20,22,-1,24,-1,-1,-1,-1,-1,-1,-1,-1,-1,-1],"split_conditions":[1.4193034E-1,1.1450292E-1,3.402335E-1,1E0,1E0,1E0,1E0,7.841055E-2,-1.6975227E-1,1.2036403E-1,-8.7646894E-2,2.376496E-1,2.559897E-1,1.0046015E-1,1E0,-5.051888E-2,-1.373338E-1,-1.3508016E-2,2.7541572E-2,-2.167545E-3,6.596636E-2,-1.2519014E-2,-6.0370307E-2,7.932602E-2,-4.3274867E-3],"split_indices":[0,0,0,1,2,1,2,0,0,0,0,0,0,0,1,0,0,0,0,0,0,0,0,0,0],"split_type":[0,0,0,0,0,0,0,0,0,0,0,0,0,0,0,0,0,0,0,0,0,0,0,0,0],"sum_hessian":[7.672649E1,1.961417E1,5.7112316E1,1.5232461E1,4.381709E0,2.1531597E1,3.558072E1,7.7233067E0,7.5091543E0,2.2028315E0,2.1788778E0,1.0841862E1,1.0689734E1,1.7290966E1,1.8289755E1,5.7516966E0,1.97161E0,1.1249657E0,1.077866E0,6.0494213E0,4.792441E0,5.6020236E0,5.087711E0,9.571617E0,8.718138E0],"tree_param":{"num_deleted":"0","num_feature":"4","num_nodes":"25","size_leaf_vector":"1"}},{"base_weights":[-8.310198E-3,-7.504552E-1,5.9102875E-1,-1.0441419E0,-4.4155982E-1,8.3781934E-1,2.8317985E-1,-6.484294E-1,-1.2014794E-1,-3.5616527E-3,-6.2222654E-1,3.1591755E-1,9.956337E-2,8.830947E-3,6.1095464E-1,3.4441482E-2,-1.3716824E-1,8.879665E-2,-4.611781E-2,-8.771949E-2,-3.7332397E-2,8.5051045E-2,-5.155618E-2,8.742686E-2,-1.9461162E-2,8.70116E-2,4.434793E-2],"categories":[],"categories_nodes":[],"categories_segments":[],"categories_sizes":[],"default_left":[0,0,0,0,0,0,0,0,0,0,0,0,0,0,0,0,0,0,0,0,0,0,0,0,0,0,0],"id":2,"left_children":[1,3,5,7,9,11,13,15,-1,17,19,21,-1,23,25,-1,-1,-1,-1,-1,-1,-1,-1,-1,-1,-1,-1],"loss_changes":[3.440368E1,2.673418E0,3.014305E0,2.7804947E-1,1.4674623E0,1.5999451E0,1.8429084E0,5.5010123E0,0E0,3.0325823E0,5.0661564E-1,3.4884758E0,0E0,2.3187728E0,1.9959688E-2,0E0,0E0,0E0,0E0,0E0,0E0,0E0,0E0,0E0,0E0,0E0,0E0],"parents":[2147483647,0,0,1,1,2,2,3,3,4,4,5,5,6,6,7,7,9,9,10,10,11,11,13,13,14,14],"right_children":[2,4,6,8,10,12,14,16,-1,18,20,22,-1,24,26,-1,-1,-1,-1,-1,-1,-1,-1,-1,-1,-1,-1],"split_conditions":[2.6776382E-1,1.2036403E-1,1E0,5.4897364E-2,1.6977172E-1,3.5399503E-1,4.821076E-1,1E0,-1.2014794E-1,1E0,2.1675843E-1,3.246863E-1,9.956337E-2,2.875179E-1,5.070446E-1,3.4441482E-2,-1.3716824E-1,8.879665E-2,-4.611781E-2,-8.771949E-2,-3.7332397E-2,8.5051045E-2,-5.155618E-2,8.742686E-2,-1.9461162E-2,8.70116E-2,4.434793E-2],"split_indices":[0,0,1,0,0,0,0,3,0,3,0,0,0,0,0,0,0,0,0,0,0,0,0,0,0,0,0],"split_type":[0,0,0,0,0,0,0,0,0,0,0,0,0,0,0,0,0,0,0,0,0,0,0,0,0,0,0],"sum_hessian":[7.534984E1,3.3551632E1,4.1798203E1,1.5979064E1,1.7572569E1,2.224429E1,1.9553915E1,6.002844E0,9.97622E0,5.4294443E0,1.2143125E1,5.8615627E0,1.6382727E1,1.1203488E1,8.350426E0,2.7506678E0,3.252176E0,1.5226337E0,3.9068108E0,4.7515397E0,7.391585E0,3.5537925E0,2.3077703E0,1.5047903E0,9.698698E0,1.6310124E0,6.7194133E0],"tree_param":{"num_deleted":"0","num_feature":"4","num_nodes":"27","size_leaf_vector":"1"}},{"base_weights":[-2.5566472E-2,-6.2707335E-1,5.279516E-1,-9.563652E-1,-3.169896E-1,7.9714304E-1,1.7909537E-1,-4.7708845E-1,-1.2275674E0,7.965697E-2,-5.2956235E-1,2.708913E-1,9.547662E-2,-2.0867956E-1,6.534113E-1,2.8312786E-2,-1.1040012E-1,-1.4923498E-1,-7.436075E-2,8.841756E-2,-2.3899004E-2,-1.693919E-2,-7.8669444E-2,7.6062456E-2,-3.589488E-2,4.3215554E-2,-3.4895863E-2,3.200197E-2,7.8370795E-2],"categories":[],"categories_nodes":[],"categories_segments":[],"categories_sizes":[],"default_left":[0,0,0,0,0,0,0,0,0,0,0,0,0,0,0,0,0,0,0,0,0,0,0,0,0,0,0,0,0],"id":3,"left_children":[1,3,5,7,9,11,13,15,17,19,21,23,-1,25,27,-1,-1,-1,-1,-1,-1,-1,-1,-1,-1,-1,-1,-1,-1],"loss_changes":[2.5887346E1,3.4995155E0,3.6621132E0,1.6975403E0,1.7855077E0,1.6143417E0,3.619366E0,4.1173987E0,2.4632168E-1,2.2836146E0,1.1255472E0,2.3089488E0,0E0,1.1555555E0,1.2973022E-1,0E0,0E0,0E0,0E0,0E0,0E0,0E0,0E0,0E0,0E0,0E0,0E0,0E0,0E0],"parents":[2147483647,0,0,1,1,2,2,3,3,4,4,5,5,6,6,7,7,8,8,9,9,10,10,11,11,13,13,14,14],"right_children":[2,4,6,8,10,12,14,16,18,20,22,24,-1,26,28,-1,-1,-1,-1,-1,-1,-1,-1,-1,-1,-1,-1,-1,-1],"split_conditions":[2.6776382E-1,1.1450292E-1,1E0,5.4897364E-2,1.7558523E-1,3.5399503E-1,4.821076E-1,1E0,1E0,1E0,1E0,3.246863E-1,9.547662E-2,2.875179E-1,5.281993E-1,2.8312786E-2,-1.1040012E-1,-1.4923498E-1,-7.436075E-2,8.841756E-2,-2.3899004E-2,-1.693919E-2,-7.8669444E-2,7.6062456E-2,-3.589488E-2,4.3215554E-2,-3.4895863E-2,3.200197E-2,7.8370795E-2],"split_indices":[0,0,1,0,0,0,0,3,3,3,1,0,0,0,0,0,0,0,0,0,0,0,0,0,0,0,0,0,0],"split_type":[0,0,0,0,0,0,0,0,0,0,0,0,0,0,0,0,0,0,0,0,0,0,0,0,0,0,0,0,0],"sum_hessian":[7.575828E1,3.6241657E1,3.9516617E1,1.6565643E1,1.9676014E1,2.1579779E1,1.793684E1,6.9834476E0,9.582195E0,7.083656E0,1.2592358E1,5.60042E0,1.5979358E1,1.0176846E1,7.7599945E0,3.404007E0,3.5794408E0,4.846808E0,4.735388E0,1.5061512E0,5.5775046E0,5.936186E0,6.656172E0,3.0338206E0,2.5665994E0,1.4539771E0,8.722869E0,3.1517234E0,4.608271E0],"tree_param":{"num_deleted":"0","num_feature":"4","num_nodes":"29","size_leaf_vector":"1"}},{"base_weights":[6.778723E-2,-5.2041316E-1,6.083352E-1,-2.1738115E-1,-7.6207364E-1,8.1206465E-1,3.9644617E-1,-5.106684E-1,3.328322E-2,-1.0654588E0,-4.573486E-1,1.0053102E-1,5.0341326E-1,-2.7021926E-2,6.30311E-1,-2.4422321E-2,-1.0448511E-1,4.3863308E-2,-6.008442E-2,-4.85298E-2,-1.2527373E-1,6.5962593E-3,-6.21391E-2,-3.21813E-2,6.9854364E-2,5.750486E-2,-4.78536E-2,8.319902E-2,3.7179716E-2],"categories":[],"categories_nodes":[],"categories_segments":[],"categories_sizes":[],"default_left":[0,0,0,0,0,0,0,0,0,0,0,0,0,0,0,0,0,0,0,0,0,0,0,0,0,0,0,0,0],"id":4,"left_children":[1,3,5,7,9,11,13,15,17,19,21,-1,23,25,27,-1,-1,-1,-1,-1,-1,-1,-1,-1,-1,-1,-1,-1,-1],"loss_changes":[2.4525658E1,2.5440435E0,1.4107723E0,1.3267436E0,1.3789434E0,6.575699E-1,2.1590695E0,9.220395E-1,2.973979E0,4.094038E-1,1.055948E0,0E0,1.7569339E0,2.6277432E0,4.1928816E-1,0E0,0E0,0E0,0E0,0E0,0E0,0E0,0E0,0E0,0E0,0E0,0E0,0E0,0E0],"parents":[2147483647,0,0,1,1,2,2,3,3,4,4,5,5,6,6,7,7,8,8,9,9,10,10,12,12,13,13,14,14],"right_children":[2,4,6,8,10,12,14,16,18,20,22,-1,24,26,28,-1,-1,-1,-1,-1,-1,-1,-1,-1,-1,-1,-1,-1,-1],"split_conditions":[2.6418808E-1,1E0,1E0,1.083315E-1,1.1450292E-1,1E0,3.84943E-1,7.992399E-2,2.065264E-1,5.4897364E-2,1.3031691E-1,1.0053102E-1,3.1616232E-1,3.246863E-1,1E0,-2.4422321E-2,-1.0448511E-1,4.3863308E-2,-6.008442E-2,-4.85298E-2,-1.2527373E-1,6.5962593E-3,-6.21391E-2,-3.21813E-2,6.9854364E-2,5.750486E-2,-4.78536E-2,8.319902E-2,3.7179716E-2],"split_indices":[0,1,2,0,0,1,0,0,0,0,0,0,0,0,1,0,0,0,0,0,0,0,0,0,0,0,0,0,0],"split_type":[0,0,0,0,0,0,0,0,0,0,0,0,0,0,0,0,0,0,0,0,0,0,0,0,0,0,0,0,0],"sum_hessian":[7.5141E1,3.600222E1,3.9138775E1,1.6815645E1,1.9186577E1,1.8509531E1,2.0629244E1,7.271013E0,9.544632E0,8.363446E0,1.0823131E1,9.994747E0,8.514784E0,7.65411E0,1.2975135E1,5.8234982E0,1.4475143E0,6.0107207E0,3.5339117E0,2.9173253E0,5.4461203E0,2.7257185E0,8.097412E0,1.5041895E0,7.010594E0,3.1629202E0,4.4911895E0,6.0426297E0,6.932505E0],"tree_param":{"num_deleted":"0","num_feature":"4","num_nodes":"29","size_leaf_vector":"1"}},{"base_weights":[5.349783E-2,2.824988E-1,-1.774533E-1,5.07389E-1,9.821969E-2,5.0304603E-2,-3.4380976E-2,8.3134085E-2,2.055194E-2,1.725362E-2,4.489483E-5,-8.465959E-3,1.7257443E-2],"categories":[],"categories_nodes":[],"categories_segments":[],"categories_sizes":[],"default_left":[0,0,0,0,0,0,0,0,0,0,0,0,0],"id":5,"left_children":[1,3,5,7,9,11,-1,-1,-1,-1,-1,-1,-1],"loss_changes":[4.1231318E0,1.5687022E0,1.49333E0,1.5257502E0,1.6490154E-1,3.0036137E-1,0E0,0E0,0E0,0E0,0E0,0E0,0E0],"parents":[2147483647,0,0,1,1,2,2,3,3,4,4,5,5],"right_children":[2,4,6,8,10,12,-1,-1,-1,-1,-1,-1,-1],"split_conditions":[1E0,1E0,1E0,1E0,1E0,1E0,-3.4380976E-2,8.3134085E-2,2.055194E-2,1.725362E-2,4.489483E-5,-8.465959E-3,1.7257443E-2],"split_indices":[1,3,2,2,2,3,0,0,0,0,0,0,0],"split_type":[0,0,0,0,0,0,0,0,0,0,0,0,0],"sum_hessian":[7.601177E1,3.805496E1,3.7956818E1,1.6349281E1,2.1705677E1,1.631611E1,2.1640707E1,7.040154E0,9.309127E0,1.1897539E1,9.808138E0,7.90167E0,8.41444E0],"tree_param":{"num_deleted":"0","num_feature":"4","num_nodes":"13","size_leaf_vector":"1"}},{"base_weights":[5.6238536E-4,-6.0593027E-1,4.4308892E-1,-8.595584E-1,-1.8445651E-1,7.2057766E-1,1.654578E-1,-8.178263E-3,-9.035436E-1,2.1372116E-1,-6.97103E-1,2.5188175E-1,8.570536E-2,-1.09830715E-1,3.7062836E-1,-9.566149E-2,-4.414697E-2,-9.439877E-3,7.23466E-2,-1.9477492E-2,-1.0582902E-1,4.411569E-2,-1.3420574E-2,1.32376095E-2,-1.17964685E-1,9.253233E-2,1.79812E-2],"categories":[],"categories_nodes":[],"categories_segments":[],"categories_sizes":[],"default_left":[0,0,0,0,0,0,0,0,0,0,0,0,0,0,0,0,0,0,0,0,0,0,0,0,0,0,0],"id":6,"left_children":[1,3,5,7,9,11,13,-1,15,17,19,21,-1,23,25,-1,-1,-1,-1,-1,-1,-1,-1,-1,-1,-1,-1],"loss_changes":[2.0281532E1,3.249178E0,3.246543E0,5.9762096E-1,2.8535516E0,1.1627121E0,1.3475032E0,0E0,3.0834198E-2,1.3597775E0,8.873532E-1,5.1787436E-1,0E0,2.9161537E0,1.2609693E0,0E0,0E0,0E0,0E0,0E0,0E0,0E0,0E0,0E0,0E0,0E0,0E0],"parents":[2147483647,0,0,1,1,2,2,3,3,4,4,5,5,6,6,8,8,9,9,10,10,11,11,13,13,14,14],"right_children":[2,4,6,8,10,12,14,-1,16,18,20,22,-1,24,26,-1,-1,-1,-1,-1,-1,-1,-1,-1,-1,-1,-1],"split_conditions":[2.376496E-1,1.2880576E-1,1E0,1.5118122E-2,1.9791137E-1,3.1616232E-1,3.84943E-1,-8.178263E-3,1.1450292E-1,1.8384635E-1,1E0,3.086798E-1,8.570536E-2,3.7753576E-1,4.2652893E-1,-9.566149E-2,-4.414697E-2,-9.439877E-3,7.23466E-2,-1.9477492E-2,-1.0582902E-1,4.411569E-2,-1.3420574E-2,1.32376095E-2,-1.17964685E-1,9.253233E-2,1.79812E-2],"split_indices":[0,0,2,0,0,0,0,0,0,0,3,0,0,0,0,0,0,0,0,0,0,0,0,0,0,0,0],"split_type":[0,0,0,0,0,0,0,0,0,0,0,0,0,0,0,0,0,0,0,0,0,0,0,0,0,0,0],"sum_hessian":[7.356731E1,3.0878445E1,4.268886E1,1.8628847E1,1.22495985E1,2.0551973E1,2.2136889E1,1.150166E0,1.747868E1,7.222732E0,5.026866E0,5.2765307E0,1.5275443E1,9.651556E0,1.24853325E1,1.4717988E1,2.7606924E0,5.0095034E0,2.2132285E0,2.7464507E0,2.2804155E0,3.4450154E0,1.8315153E0,8.584324E0,1.0672318E0,2.2104278E0,1.0274905E1],"tree_param":{"num_deleted":"0","num_feature":"4","num_nodes":"27","size_leaf_vector":"1"}},{"base_weights":[-1.4262144E-3,-5.0253654E-1,5.02998E-1,-2.2900046E-1,-7.114052E-1,7.265094E-1,2.2668E-1,4.7914568E-1,-4.1704988E-1,-1.4210494E-1,-5.0224066E-1,3.3893156E-1,8.392615E-2,-9.273784E-2,4.7311166E-1,2.5219272E-3,6.8491824E-2,-1.0239899E-1,-6.9987373E-3,-3.3241615E-2,-1.0585163E-1,9.321699E-2,-3.789671E-2,9.970425E-3,-7.88564E-2,8.5985556E-2,3.1346157E-2],"categories":[],"categories_nodes":[],"categories_segments":[],"categories_sizes":[],"default_left":[0,0,0,0,0,0,0,0,0,0,0,0,0,0,0,0,0,0,0,0,0,0,0,0,0,0,0],"id":7,"left_children":[1,3,5,7,9,11,13,15,17,-1,19,21,-1,23,25,-1,-1,-1,-1,-1,-1,-1,-1,-1,-1,-1,-1],"loss_changes":[1.9005411E1,1.9919443E0,2.149562E0,2.5708482E0,2.390233E0,6.009855E-1,1.4772565E0,3.7515914E-1,3.0045161E0,0E0,1.3200173E0,3.0122695E0,0E0,1.2525294E0,3.752706E-1,0E0,0E0,0E0,0E0,0E0,0E0,0E0,0E0,0E0,0E0,0E0,0E0],"parents":[2147483647,0,0,1,1,2,2,3,3,4,4,5,5,6,6,7,7,8,8,10,10,11,11,13,13,14,14],"right_children":[2,4,6,8,10,12,14,16,18,-1,20,22,-1,24,26,-1,-1,-1,-1,-1,-1,-1,-1,-1,-1,-1,-1],"split_conditions":[2.7257445E-1,1E0,1E0,5.4897364E-2,4.0562116E-2,3.5399503E-1,4.2773455E-1,2.2834372E-2,1.1450292E-1,-1.4210494E-1,2.2577271E-1,3.246863E-1,8.392615E-2,4.045206E-1,4.5622396E-1,2.5219272E-3,6.8491824E-2,-1.0239899E-1,-6.9987373E-3,-3.3241615E-2,-1.0585163E-1,9.321699E-2,-3.789671E-2,9.970425E-3,-7.88564E-2,8.5985556E-2,3.1346157E-2],"split_indices":[0,3,1,0,0,0,0,0,0,0,0,0,0,0,0,0,0,0,0,0,0,0,0,0,0,0,0],"split_type":[0,0,0,0,0,0,0,0,0,0,0,0,0,0,0,0,0,0,0,0,0,0,0,0,0,0,0],"sum_hessian":[7.31879E1,3.6716423E1,3.647147E1,1.6804934E1,1.9911491E1,1.9261635E1,1.7209835E1,3.2013793E0,1.3603555E1,3.2138283E0,1.6697662E1,5.243487E0,1.4018148E1,7.7666273E0,9.443208E0,1.3487178E0,1.8526615E0,4.239356E0,9.364199E0,1.4016241E1,2.6814213E0,2.7075896E0,2.5358975E0,6.755104E0,1.0115234E0,1.4776951E0,7.9655123E0],"tree_param":{"num_deleted":"0","num_feature":"4","num_nodes":"27","size_leaf_vector":"1"}},{"base_weights":[-1.3581443E-2,-5.107034E-1,4.0452176E-1,-7.313297E-1,-3.0708575E-1,7.1221507E-1,1.13105975E-1,-4.56862E-3,-7.817868E-1,-1.2225663E-1,-5.9317464E-1,2.815321E-1,8.668873E-2,-1.3706823E-1,5.608558E-1,-4.910622E-2,-1.0062226E-1,-2.9041095E-2,4.561385E-2,-1.0157583E-1,-2.7347876E-2,7.773087E-2,-4.4896234E-2,4.010887E-2,-2.1012258E-2,8.680516E-2,3.2827925E-2],"categories":[],"categories_nodes":[],"categories_segments":[],"categories_sizes":[],"default_left":[0,0,0,0,0,0,0,0,0,0,0,0,0,0,0,0,0,0,0,0,0,0,0,0,0,0,0],"id":8,"left_children":[1,3,5,7,9,11,13,-1,15,17,19,21,-1,23,25,-1,-1,-1,-1,-1,-1,-1,-1,-1,-1,-1,-1],"loss_changes":[1.5915422E1,1.346324E0,3.6504598E0,5.1986885E-1,9.8022425E-1,1.0916262E0,2.603829E0,0E0,4.7786903E-1,1.4313353E0,7.4280334E-1,2.8041255E0,0E0,6.8485713E-1,3.0681133E-1,0E0,0E0,0E0,0E0,0E0,0E0,0E0,0E0,0E0,0E0,0E0,0E0],"parents":[2147483647,0,0,1,1,2,2,3,3,4,4,5,5,6,6,8,8,9,9,10,10,11,11,13,13,14,14],"right_children":[2,4,6,8,10,12,14,-1,16,18,20,22,-1,24,26,-1,-1,-1,-1,-1,-1,-1,-1,-1,-1,-1,-1],"split_conditions":[2.376496E-1,1.1033364E-1,1E0,1.5118122E-2,1.9791137E-1,3.5399503E-1,4.821076E-1,-4.56862E-3,1E0,1.8384635E-1,2.1675843E-1,3.246863E-1,8.668873E-2,2.5693214E-1,5.228036E-1,-4.910622E-2,-1.0062226E-1,-2.9041095E-2,4.561385E-2,-1.0157583E-1,-2.7347876E-2,7.773087E-2,-4.4896234E-2,4.010887E-2,-2.1012258E-2,8.680516E-2,3.2827925E-2],"split_indices":[0,0,1,0,0,0,0,0,1,0,0,0,0,0,0,0,0,0,0,0,0,0,0,0,0,0,0],"split_type":[0,0,0,0,0,0,0,0,0,0,0,0,0,0,0,0,0,0,0,0,0,0,0,0,0,0,0],"sum_hessian":[7.457836E1,3.396853E1,4.0609833E1,1.5059445E1,1.8909084E1,1.9050865E1,2.1558968E1,1.162884E0,1.3896562E1,1.2354644E1,6.55444E0,5.7791295E0,1.3271735E1,1.4276204E1,7.2827635E0,7.4430876E0,6.453474E0,9.957613E0,2.3970315E0,1.885227E0,4.6692133E0,3.404474E0,2.3746557E0,1.1696516E0,1.3106552E1,1.9606888E0,5.322075E0],"tree_param":{"num_deleted":"0","num_feature":"4","num_nodes":"27","size_leaf_vector":"1"}},{"base_weights":[2.259319E-2,2.4108204E-1,-1.8413173E-1,4.822378E-1,5.024502E-2,1.2566278E-2,-3.363827E-2,6.4871386E-2,2.970717E-2,1.1916651E-2,-3.503044E-3,-8.3932356E-4,3.4233332E-3],"categories":[],"categories_nodes":[],"categories_segments":[],"categories_sizes":[],"default_left":[0,0,0,0,0,0,0,0,0,0,0,0,0],"id":9,"left_children":[1,3,5,7,9,11,-1,-1,-1,-1,-1,-1,-1],"loss_changes":[3.3609245E0,1.6385872E0,1.1511174E0,2.957213E-1,1.2928058E-1,8.313345E-3,0E0,0E0,0E0,0E0,0E0,0E0,0E0],"parents":[2147483647,0,0,1,1,2,2,3,3,4,4,5,5],"right_children":[2,4,6,8,10,12,-1,-1,-1,-1,-1,-1,-1],"split_conditions":[1E0,1E0,1E0,1E0,1E0,1E0,-3.363827E-2,6.4871386E-2,2.970717E-2,1.1916651E-2,-3.503044E-3,-8.3932356E-4,3.4233332E-3],"split_indices":[1,3,2,2,2,3,0,0,0,0,0,0,0],"split_type":[0,0,0,0,0,0,0,0,0,0,0,0,0],"sum_hessian":[7.24281E1,3.5131355E1,3.7296745E1,1.4845069E1,2.0286285E1,1.6673355E1,2.062339E1,6.498811E0,8.346258E0,1.0999124E1,9.287162E0,8.786452E0,7.8869033E0],"tree_param":{"num_deleted":"0","num_feature":"4","num_nodes":"13","size_leaf_vector":"1"}},{"base_weights":[-3.6366119E-3,-4.1384995E-1,3.585276E-1,-6.617444E-1,-1.8683882E-1,2.3714598E-1,8.3703645E-2,-4.0829083E-1,-8.4743524E-1,2.032696E-2,-5.418644E-1,4.6557012E-1,2.8388636E-6,-1.0341677E-3,-7.448354E-2,-1.0999824E-1,-3.385782E-2,-1.3794902E-2,6.2118895E-2,-1.1540679E-1,-1.4184274E-2,7.765793E-2,1.960232E-2,7.4019046E-3,-4.7560114E-2],"categories":[],"categories_nodes":[],"categories_segments":[],"categories_sizes":[],"default_left":[0,0,0,0,0,0,0,0,0,0,0,0,0,0,0,0,0,0,0,0,0,0,0,0,0],"id":10,"left_children":[1,3,5,7,9,11,-1,13,15,17,19,21,23,-1,-1,-1,-1,-1,-1,-1,-1,-1,-1,-1,-1],"loss_changes":[1.0890041E1,1.8103409E0,2.063004E0,4.0863895E-1,1.432896E0,1.757965E0,0E0,1.1587805E0,6.973572E-1,1.3384061E0,1.589771E0,1.2335501E0,6.309245E-1,0E0,0E0,0E0,0E0,0E0,0E0,0E0,0E0,0E0,0E0,0E0,0E0],"parents":[2147483647,0,0,1,1,2,2,3,3,4,4,5,5,7,7,8,8,9,9,10,10,11,11,12,12],"right_children":[2,4,6,8,10,12,-1,14,16,18,20,22,24,-1,-1,-1,-1,-1,-1,-1,-1,-1,-1,-1,-1],"split_conditions":[2.376496E-1,1.1033364E-1,5.281993E-1,1E0,1.9791137E-1,1E0,8.3703645E-2,4.8918877E-2,7.005389E-2,1.8384635E-1,2.1675843E-1,1E0,5.070446E-1,-1.0341677E-3,-7.448354E-2,-1.0999824E-1,-3.385782E-2,-1.3794902E-2,6.2118895E-2,-1.1540679E-1,-1.4184274E-2,7.765793E-2,1.960232E-2,7.4019046E-3,-4.7560114E-2],"split_indices":[0,0,0,2,0,1,0,0,0,0,0,2,0,0,0,0,0,0,0,0,0,0,0,0,0],"split_type":[0,0,0,0,0,0,0,0,0,0,0,0,0,0,0,0,0,0,0,0,0,0,0,0,0],"sum_hessian":[7.130299E1,3.3366722E1,3.793627E1,1.5034322E1,1.8332401E1,3.1453236E1,6.4830365E0,7.709803E0,7.324519E0,1.2172314E1,6.1600876E0,1.5530498E1,1.5922737E1,4.0049067E0,3.7048967E0,4.1187162E0,3.205803E0,1.0244243E1,1.9280709E0,1.6894679E0,4.4706197E0,6.337314E0,9.193184E0,1.4509114E1,1.4136229E0],"tree_param":{"num_deleted":"0","num_feature":"4","num_nodes":"25","size_leaf_vector":"1"}},{"base_weights":[-2.0804785E-2,-4.541751E-1,3.6801288E-1,-6.3454074E-1,-2.7269962E-1,5.6695175E-1,1.8957879E-1,-3.2400733E-1,-8.267545E-2,-9.009545E-3,-5.0855875E-1,8.421433E-2,2.8181884E-1,-9.958181E-2,3.9359686E-1,-6.2855504E-2,6.376136E-2,5.2725762E-2,-5.2524257E-2,-8.939018E-2,-1.5487924E-2,7.298004E-3,8.06816E-2,2.5719477E-2,-4.2715885E-2,8.40663E-2,1.2023901E-2],"categories":[],"categories_nodes":[],"categories_segments":[],"categories_sizes":[],"default_left":[0,0,0,0,0,0,0,0,0,0,0,0,0,0,0,0,0,0,0,0,0,0,0,0,0,0,0],"id":11,"left_children":[1,3,5,7,9,11,13,15,-1,17,19,-1,21,23,25,-1,-1,-1,-1,-1,-1,-1,-1,-1,-1,-1,-1],"loss_changes":[1.2606473E1,9.843292E-1,1.2933936E0,7.4564457E-1,1.2006636E0,1.1874194E0,1.3551476E0,2.7835984E0,0E0,3.0917425E0,1.2532213E0,0E0,1.0836351E0,1.2816029E0,1.5219414E0,0E0,0E0,0E0,0E0,0E0,0E0,0E0,0E0,0E0,0E0,0E0,0E0],"parents":[2147483647,0,0,1,1,2,2,3,3,4,4,5,5,6,6,7,7,9,9,10,10,12,12,13,13,14,14],"right_children":[2,4,6,8,10,12,14,16,-1,18,20,-1,22,24,26,-1,-1,-1,-1,-1,-1,-1,-1,-1,-1,-1,-1],"split_conditions":[2.376496E-1,1.1033364E-1,1E0,5.4897364E-2,1.7558523E-1,1E0,3.84943E-1,4.0562116E-2,-8.267545E-2,1E0,1E0,8.421433E-2,5.236855E-1,3.246863E-1,4.5790857E-1,-6.2855504E-2,6.376136E-2,5.2725762E-2,-5.2524257E-2,-8.939018E-2,-1.5487924E-2,7.298004E-3,8.06816E-2,2.5719477E-2,-4.2715885E-2,8.40663E-2,1.2023901E-2],"split_indices":[0,0,2,0,0,1,0,0,0,2,2,0,0,0,0,0,0,0,0,0,0,0,0,0,0,0,0],"split_type":[0,0,0,0,0,0,0,0,0,0,0,0,0,0,0,0,0,0,0,0,0,0,0,0,0,0,0],"sum_hessian":[7.282304E1,3.435896E1,3.8464077E1,1.59800625E1,1.8378897E1,1.715752E1,2.1306555E1,7.1364064E0,8.843656E0,9.167664E0,9.211234E0,7.7368803E0,9.42064E0,9.025854E0,1.2280702E1,5.6829586E0,1.453448E0,4.486105E0,4.6815586E0,3.6772928E0,5.5339413E0,7.554531E0,1.866109E0,4.4232173E0,4.602637E0,3.872332E0,8.408369E0],"tree_param":{"num_deleted":"0","num_feature":"4","num_nodes":"27","size_leaf_vector":"1"}},{"base_weights":[-4.5277424E-2,1.7181024E-1,-2.290296E-1,2.961175E-1,4.124454E-3,-9.391672E-3,-3.239204E-2,5.5452045E-2,1.14439E-2],"categories":[],"categories_nodes":[],"categories_segments":[],"categories_sizes":[],"default_left":[0,0,0,0,0,0,0,0,0],"id":12,"left_children":[1,3,5,7,-1,-1,-1,-1,-1],"loss_changes":[2.8499196E0,5.212806E-1,4.643023E-1,7.194594E-1,0E0,0E0,0E0,0E0,0E0],"parents":[2147483647,0,0,1,1,2,2,3,3],"right_children":[2,4,6,8,-1,-1,-1,-1,-1],"split_conditions":[1E0,1E0,1E0,1E0,4.124454E-3,-9.391672E-3,-3.239204E-2,5.5452045E-2,1.14439E-2],"split_indices":[1,2,2,3,0,0,0,0,0],"split_type":[0,0,0,0,0,0,0,0,0],"sum_hessian":[6.945741E1,3.1870317E1,3.7587097E1,1.5676903E1,1.6193415E1,1.63279E1,2.12592E1,5.624674E0,1.0052229E1],"tree_param":{"num_deleted":"0","num_feature":"4","num_nodes":"9","size_leaf_vector":"1"}},{"base_weights":[-6.417482E-2,1.07891016E-1,-2.180267E-1,3.0758688E-1,-4.8739E-2,-2.2215355E-2,-3.681181E-1,5.2724373E-2,1.2823487E-2,-9.716555E-3,1.5135555E-3,4.335597E-3,-9.266195E-3,-4.2561088E-2,-2.6717542E-2],"categories":[],"categories_nodes":[],"categories_segments":[],"categories_sizes":[],"default_left":[0,0,0,0,0,0,0,0,0,0,0,0,0,0,0],"id":13,"left_children":[1,3,5,7,9,11,13,-1,-1,-1,-1,-1,-1,-1,-1],"loss_changes":[1.8997782E0,1.0824013E0,1.1012529E0,5.2874815E-1,6.32997E-2,8.4596165E-2,9.930611E-3,0E0,0E0,0E0,0E0,0E0,0E0,0E0,0E0],"parents":[2147483647,0,0,1,1,2,2,3,3,4,4,5,5,6,6],"right_children":[2,4,6,8,10,12,14,-1,-1,-1,-1,-1,-1,-1,-1],"split_conditions":[1E0,1E0,1E0,1E0,1E0,1E0,1E0,5.2724373E-2,1.2823487E-2,-9.716555E-3,1.5135555E-3,4.335597E-3,-9.266195E-3,-4.2561088E-2,-2.6717542E-2],"split_indices":[1,3,2,2,2,3,3,0,0,0,0,0,0,0,0],"split_type":[0,0,0,0,0,0,0,0,0,0,0,0,0,0,0],"sum_hessian":[6.987523E1,3.3126137E1,3.674909E1,1.4137594E1,1.8988544E1,1.6444012E1,2.0305075E1,5.4828715E0,8.654722E0,1.050385E1,8.4846945E0,8.715876E0,7.728137E0,1.0887592E1,9.417482E0],"tree_param":{"num_deleted":"0","num_feature":"4","num_nodes":"15","size_leaf_vector":"1"}},{"base_weights":[1.5489303E-2,-3.5388058E-1,3.2584456E-1,-7.133363E-2,-6.0592645E-1,2.2416748E-1,7.165488E-2,-3.6043304E-1,2.3794372E-1,-4.408438E-1,-9.0994E-2,2.8459558E-1,-4.8444252E-2,-9.864754E-3,-1.12295106E-1,4.8948515E-2,-3.781583E-4,-5.856588E-2,1.8260082E-2,1.4360231E-2,4.1059382E-2],"categories":[],"categories_nodes":[],"categories_segments":[],"categories_sizes":[],"default_left":[0,0,0,0,0,0,0,0,0,0,0,0,0,0,0,0,0,0,0,0,0],"id":14,"left_children":[1,3,5,7,9,11,-1,13,15,17,-1,19,-1,-1,-1,-1,-1,-1,-1,-1,-1],"loss_changes":[8.435017E0,2.3507595E0,1.4267578E0,1.6042122E0,4.8384953E-1,1.5578855E0,0E0,1.720762E0,5.373714E-1,1.3138523E0,0E0,4.9506474E-1,0E0,0E0,0E0,0E0,0E0,0E0,0E0,0E0,0E0],"parents":[2147483647,0,0,1,1,2,2,3,3,4,4,5,5,7,7,8,8,9,9,11,11],"right_children":[2,4,6,8,10,12,-1,14,16,18,-1,20,-1,-1,-1,-1,-1,-1,-1,-1,-1],"split_conditions":[2.2759177E-1,1E0,5.281993E-1,1.083315E-1,1.4369352E-1,5.082902E-1,7.165488E-2,8.879289E-2,1.6154657E-1,1.2036403E-1,-9.0994E-2,1E0,-4.8444252E-2,-9.864754E-3,-1.12295106E-1,4.8948515E-2,-3.781583E-4,-5.856588E-2,1.8260082E-2,1.4360231E-2,4.1059382E-2],"split_indices":[0,1,0,0,0,0,0,0,0,0,0,3,0,0,0,0,0,0,0,0,0],"split_type":[0,0,0,0,0,0,0,0,0,0,0,0,0,0,0,0,0,0,0,0,0],"sum_hessian":[7.157506E1,3.261637E1,3.8958683E1,1.5982633E1,1.663374E1,3.216246E1,6.796223E0,8.175302E0,7.8073306E0,1.2367911E1,4.2658286E0,3.0186611E1,1.9758477E0,6.9266386E0,1.2486631E0,3.3236976E0,4.483633E0,1.0085774E1,2.2821362E0,1.5255391E1,1.493122E1],"tree_param":{"num_deleted":"0","num_feature":"4","num_nodes":"21","size_leaf_vector":"1"}},{"base_weights":[1.2027986E-2,-2.4656022E-1,3.073753E-1,-4.0831587E-1,-6.043879E-2,5.184039E-1,1.1733726E-1,-1.8654643E-1,-5.459822E-1,5.512719E-1,-2.4226202E-1,2.3908879E-1,7.2399396E-1,-3.2950398E-2,4.993304E-1,3.2714684E-2,-5.0945412E-2,-1.0684836E-1,-2.8755764E-2,9.151661E-4,7.6156124E-2,-7.680951E-2,-1.1664234E-2,-1.8741323E-2,8.3956316E-2,1.0363084E-1,-1.7028041E-2,5.992401E-3,-5.63724E-2,6.6925436E-2,9.380671E-3],"categories":[],"categories_nodes":[],"categories_segments":[],"categories_sizes":[],"default_left":[0,0,0,0,0,0,0,0,0,0,0,0,0,0,0,0,0,0,0,0,0,0,0,0,0,0,0,0,0,0,0],"id":15,"left_children":[1,3,5,7,9,11,13,15,17,19,21,23,25,27,29,-1,-1,-1,-1,-1,-1,-1,-1,-1,-1,-1,-1,-1,-1,-1,-1],"loss_changes":[5.5566673E0,1.14399E0,1.300529E0,5.2691174E-1,2.27164E0,7.3375845E-1,1.116059E0,1.727048E0,1.3384414E0,5.2997684E-1,9.3514645E-1,2.2544827E0,2.579391E0,7.5763196E-1,3.1414413E-1,0E0,0E0,0E0,0E0,0E0,0E0,0E0,0E0,0E0,0E0,0E0,0E0,0E0,0E0,0E0,0E0],"parents":[2147483647,0,0,1,1,2,2,3,3,4,4,5,5,6,6,7,7,8,8,9,9,10,10,11,11,12,12,13,13,14,14],"right_children":[2,4,6,8,10,12,14,16,18,20,22,24,26,28,30,-1,-1,-1,-1,-1,-1,-1,-1,-1,-1,-1,-1,-1,-1,-1,-1],"split_conditions":[2.7257445E-1,1.2880576E-1,1E0,1E0,1.6154657E-1,1E0,5.281993E-1,5.4897364E-2,4.0562116E-2,1.363077E-1,1.8384635E-1,4.4657534E-1,4.943313E-1,5.070446E-1,1E0,3.2714684E-2,-5.0945412E-2,-1.0684836E-1,-2.8755764E-2,9.151661E-4,7.6156124E-2,-7.680951E-2,-1.1664234E-2,-1.8741323E-2,8.3956316E-2,1.0363084E-1,-1.7028041E-2,5.992401E-3,-5.63724E-2,6.6925436E-2,9.380671E-3],"split_indices":[0,0,1,3,0,3,0,0,0,0,0,0,0,0,3,0,0,0,0,0,0,0,0,0,0,0,0,0,0,0,0],"split_type":[0,0,0,0,0,0,0,0,0,0,0,0,0,0,0,0,0,0,0,0,0,0,0,0,0,0,0,0,0,0,0],"sum_hessian":[7.076432E1,3.781819E1,3.294613E1,1.9594799E1,1.8223394E1,1.4792187E1,1.8153942E1,8.406944E0,1.1187855E1,3.7099707E0,1.4513423E1,7.188632E0,7.6035542E0,1.3683989E1,4.469954E0,3.23981E0,5.1671343E0,2.6649864E0,8.522868E0,1.3285426E0,2.3814282E0,1.8124049E0,1.2701018E1,4.605413E0,2.583219E0,5.5177283E0,2.085826E0,1.2401145E1,1.2828432E0,2.6917157E0,1.7782383E0],"tree_param":{"num_deleted":"0","num_feature":"4","num_nodes":"31","size_leaf_vector":"1"}},{"base_weights":[2.7260503E-2,1.9931573E-1,-1.13958895E-1,2.9926604E-1,9.316162E-2,6.1314963E-2,-2.554597E-1,6.299064E-2,8.086684E-3,1.7812863E-3,1.5657581E-2,2.4344614E-2,-1.0655456E-2,-3.0275479E-2,-1.7156579E-2],"categories":[],"categories_nodes":[],"categories_segments":[],"categories_sizes":[],"default_left":[0,0,0,0,0,0,0,0,0,0,0,0,0,0,0],"id":16,"left_children":[1,3,5,7,9,11,13,-1,-1,-1,-1,-1,-1,-1,-1],"loss_changes":[1.7118769E0,3.084855E-1,9.7839516E-1,1.0955114E0,7.760875E-2,5.807406E-1,3.4045935E-2,0E0,0E0,0E0,0E0,0E0,0E0,0E0,0E0],"parents":[2147483647,0,0,1,1,2,2,3,3,4,4,5,5,6,6],"right_children":[2,4,6,8,10,12,14,-1,-1,-1,-1,-1,-1,-1,-1],"split_conditions":[1E0,1E0,1E0,1E0,1E0,1E0,1E0,6.299064E-2,8.086684E-3,1.7812863E-3,1.5657581E-2,2.4344614E-2,-1.0655456E-2,-3.0275479E-2,-1.7156579E-2],"split_indices":[2,1,1,3,3,3,3,0,0,0,0,0,0,0,0],"split_type":[0,0,0,0,0,0,0,0,0,0,0,0,0,0,0],"sum_hessian":[6.8519936E1,3.0702288E1,3.781765E1,1.4876256E1,1.5826031E1,1.7145985E1,2.0671663E1,5.1680336E0,9.708222E0,7.817807E0,8.008224E0,8.007732E0,9.138253E0,1.1551013E1,9.12065E0],"tree_param":{"num_deleted":"0","num_feature":"4","num_nodes":"15","size_leaf_vector":"1"}},{"base_weights":[-5.292943E-2,1.4755023E-1,-2.2843194E-1,3.1855088E-1,2.1124171E-2,-1.3833939E-1,-2.8793123E-1,4.495141E-2,1.9055603E-2,3.1758565E-3,6.61669E-4,-6.820836E-3,-1.9249788E-2,-2.0819968E-2,-3.8824342E-2],"categories":[],"categories_nodes":[],"categories_segments":[],"categories_sizes":[],"default_left":[0,0,0,0,0,0,0,0,0,0,0,0,0,0,0],"id":17,"left_children":[1,3,5,7,9,11,13,-1,-1,-1,-1,-1,-1,-1,-1],"loss_changes":[2.4222517E0,6.9146866E-1,1.5630817E-1,1.432656E-1,2.819717E-3,4.9457967E-2,8.802223E-2,0E0,0E0,0E0,0E0,0E0,0E0,0E0,0E0],"parents":[2147483647,0,0,1,1,2,2,3,3,4,4,5,5,6,6],"right_children":[2,4,6,8,10,12,14,-1,-1,-1,-1,-1,-1,-1,-1],"split_conditions":[1E0,1E0,1E0,1E0,1E0,1E0,1E0,4.495141E-2,1.9055603E-2,3.1758565E-3,6.61669E-4,-6.820836E-3,-1.9249788E-2,-2.0819968E-2,-3.8824342E-2],"split_indices":[1,3,2,2,2,3,3,0,0,0,0,0,0,0,0],"split_type":[0,0,0,0,0,0,0,0,0,0,0,0,0,0,0],"sum_hessian":[6.688598E1,3.1295656E1,3.559032E1,1.2656771E1,1.8638885E1,1.5478368E1,2.0111952E1,5.0142574E0,7.6425133E0,1.0068947E1,8.56994E0,7.729146E0,7.749222E0,1.2919003E1,7.1929493E0],"tree_param":{"num_deleted":"0","num_feature":"4","num_nodes":"15","size_leaf_vector":"1"}},{"base_weights":[4.5741744E-2,-2.8509614E-1,3.977619E-1,-6.082948E-1,-2.1032706E-1,5.523469E-1,2.535502E-1,-2.169555E-1,-8.555228E-1,1.0526508E-1,-3.0720297E-1,8.087152E-2,7.1631825E-1,8.2265936E-2,1.6791473E-1,9.898613E-3,-4.3236174E-2,-1.0928525E-1,-1.9860651E-2,-1.0453596E-1,-2.2679402E-2,7.304263E-2,-4.0731587E-2,8.65838E-2,3.7466343E-2,-5.9135943E-3,4.842111E-2],"categories":[],"categories_nodes":[],"categories_segments":[],"categories_sizes":[],"default_left":[0,0,0,0,0,0,0,0,0,0,0,0,0,0,0,0,0,0,0,0,0,0,0,0,0,0,0],"id":18,"left_children":[1,3,5,7,9,11,13,15,17,-1,19,21,23,-1,25,-1,-1,-1,-1,-1,-1,-1,-1,-1,-1,-1,-1],"loss_changes":[8.162478E0,7.471132E-1,6.15736E-1,4.214735E-1,4.1085205E0,1.1414423E0,8.0676675E-1,2.993065E-1,3.2950616E-1,0E0,1.5142684E0,1.9244324E0,2.571206E-1,0E0,1.3291278E0,0E0,0E0,0E0,0E0,0E0,0E0,0E0,0E0,0E0,0E0,0E0,0E0],"parents":[2147483647,0,0,1,1,2,2,3,3,4,4,5,5,6,6,7,7,8,8,10,10,11,11,12,12,14,14],"right_children":[2,4,6,8,10,12,14,16,18,-1,20,22,24,-1,26,-1,-1,-1,-1,-1,-1,-1,-1,-1,-1,-1,-1],"split_conditions":[2.6418808E-1,4.0562116E-2,1E0,1E0,5.4897364E-2,3.5399503E-1,2.797236E-1,2.000354E-2,2.2834372E-2,1.0526508E-1,6.7630194E-2,1E0,4.943313E-1,8.2265936E-2,4.821076E-1,9.898613E-3,-4.3236174E-2,-1.0928525E-1,-1.9860651E-2,-1.0453596E-1,-2.2679402E-2,7.304263E-2,-4.0731587E-2,8.65838E-2,3.7466343E-2,-5.9135943E-3,4.842111E-2],"split_indices":[0,0,1,2,0,0,0,0,0,0,0,2,0,0,0,0,0,0,0,0,0,0,0,0,0,0,0],"split_type":[0,0,0,0,0,0,0,0,0,0,0,0,0,0,0,0,0,0,0,0,0,0,0,0,0,0,0],"sum_hessian":[6.811357E1,3.5211235E1,3.2902336E1,5.274764E0,2.993647E1,1.4514106E1,1.8388231E1,2.7690945E0,2.5056698E0,1.4298214E0,2.8506649E1,4.1305437E0,1.0383562E1,1.2793708E0,1.710886E1,1.3416828E0,1.4274116E0,1.353184E0,1.1524858E0,1.6214205E0,2.688523E1,1.5594398E0,2.571104E0,6.155472E0,4.2280903E0,1.0432799E1,6.67606E0],"tree_param":{"num_deleted":"0","num_feature":"4","num_nodes":"27","size_leaf_vector":"1"}},{"base_weights":[-9.309068E-3,-3.4077218E-1,3.9515877E-1,-1.6463968E-1,-4.7794786E-1,2.2228518E-1,5.3915304E-1,3.357866E-1,-3.020253E-1,-6.605241E-1,-1.7797764E-1,3.342801E-2,7.129027E-1,-1.0997302E-2,6.358268E-1,5.334288E-3,5.8119368E-2,-7.598891E-2,-2.2500819E-3,-9.6767254E-2,-4.8314955E-2,3.83833E-2,-4.985446E-2,4.9238604E-2,-1.5884671E-2,8.267002E-2,2.4998799E-2,8.580857E-2,1.6450504E-2],"categories":[],"categories_nodes":[],"categories_segments":[],"categories_sizes":[],"default_left":[0,0,0,0,0,0,0,0,0,0,0,0,0,0,0,0,0,0,0,0,0,0,0,0,0,0,0,0,0],"id":19,"left_children":[1,3,5,7,9,11,13,15,17,19,21,23,25,-1,27,-1,-1,-1,-1,-1,-1,-1,-1,-1,-1,-1,-1,-1,-1],"loss_changes":[9.22672E0,8.348322E-1,6.520338E-1,1.344417E0,1.0177665E0,1.4394519E0,1.0875092E0,2.7175394E-1,1.8657709E0,2.1443939E-1,1.8504568E0,1.1770763E0,2.1974087E-2,0E0,1.3527689E0,0E0,0E0,0E0,0E0,0E0,0E0,0E0,0E0,0E0,0E0,0E0,0E0,0E0,0E0],"parents":[2147483647,0,0,1,1,2,2,3,3,4,4,5,5,6,6,7,7,8,8,9,9,10,10,11,11,12,12,14,14],"right_children":[2,4,6,8,10,12,14,16,18,20,22,24,26,-1,28,-1,-1,-1,-1,-1,-1,-1,-1,-1,-1,-1,-1,-1,-1],"split_conditions":[2.7257445E-1,1E0,1E0,5.4897364E-2,1.4193034E-1,5.281993E-1,3.1397933E-1,1E0,1.1450292E-1,4.0562116E-2,1.9329798E-1,3.3499408E-1,5.668827E-1,-1.0997302E-2,4.943313E-1,5.334288E-3,5.8119368E-2,-7.598891E-2,-2.2500819E-3,-9.6767254E-2,-4.8314955E-2,3.83833E-2,-4.985446E-2,4.9238604E-2,-1.5884671E-2,8.267002E-2,2.4998799E-2,8.580857E-2,1.6450504E-2],"split_indices":[0,3,3,0,0,0,0,1,0,0,0,0,0,0,0,0,0,0,0,0,0,0,0,0,0,0,0,0,0],"split_type":[0,0,0,0,0,0,0,0,0,0,0,0,0,0,0,0,0,0,0,0,0,0,0,0,0,0,0,0,0],"sum_hessian":[6.681771E1,3.6809586E1,3.000813E1,1.7079653E1,1.972993E1,1.4792532E1,1.5215597E1,3.367917E0,1.3711737E1,1.1517726E1,8.212205E0,1.145226E1,3.3402717E0,1.9544791E0,1.3261118E1,2.1317778E0,1.2361393E0,4.546317E0,9.16542E0,2.5853333E0,8.932392E0,2.911787E0,5.3004174E0,2.9204133E0,8.531847E0,2.050374E0,1.2898978E0,8.453942E0,4.8071766E0],"tree_param":{"num_deleted":"0","num_feature":"4","num_nodes":"29","size_leaf_vector":"1"}},{"base_weights":[-4.5266464E-2,-3.6348635E-1,2.3972397E-1,-2.1511823E-1,-9.612237E-2,4.430154E-1,5.1381204E-2,-3.039377E-1,4.889697E-2,7.775155E-2,5.684927E-1,-2.0484471E-1,2.7567238E-1,-1.0803844E-2,-4.826287E-2,2.8906662E-2,-2.649548E-2,9.4713286E-2,3.5406806E-2,2.8519186E-3,-1.07586525E-1,8.428758E-2,5.7687084E-3],"categories":[],"categories_nodes":[],"categories_segments":[],"categories_sizes":[],"default_left":[0,0,0,0,0,0,0,0,0,0,0,0,0,0,0,0,0,0,0,0,0,0,0],"id":20,"left_children":[1,3,5,7,-1,9,11,13,-1,15,17,19,21,-1,-1,-1,-1,-1,-1,-1,-1,-1,-1],"loss_changes":[6.1655936E0,2.6367984E0,1.3541338E0,1.8356031E0,0E0,7.4242115E-1,1.19425E0,8.0797124E-1,0E0,4.7828674E-1,6.889572E-1,2.0256972E0,1.3093643E0,0E0,0E0,0E0,0E0,0E0,0E0,0E0,0E0,0E0,0E0],"parents":[2147483647,0,0,1,1,2,2,3,3,5,5,6,6,7,7,9,9,10,10,11,11,12,12],"right_children":[2,4,6,8,-1,10,12,14,-1,16,18,20,22,-1,-1,-1,-1,-1,-1,-1,-1,-1,-1],"split_conditions":[2.376496E-1,1.9791137E-1,1E0,1.8384635E-1,-9.612237E-2,3.1616232E-1,3.84943E-1,1E0,4.889697E-2,3.086798E-1,4.0588272E-1,3.7753576E-1,4.3298414E-1,-1.0803844E-2,-4.826287E-2,2.8906662E-2,-2.649548E-2,9.4713286E-2,3.5406806E-2,2.8519186E-3,-1.07586525E-1,8.428758E-2,5.7687084E-3],"split_indices":[0,0,2,0,0,0,0,2,0,0,0,0,0,0,0,0,0,0,0,0,0,0,0],"split_type":[0,0,0,0,0,0,0,0,0,0,0,0,0,0,0,0,0,0,0,0,0,0,0],"sum_hessian":[6.602483E1,3.106371E1,3.4961124E1,2.5975945E1,5.0877643E0,1.6163048E1,1.8798077E1,2.3570848E1,2.4050975E0,4.546847E0,1.1616201E1,8.814857E0,9.983221E0,1.2009462E1,1.1561385E1,2.9094055E0,1.6374413E0,2.9644184E0,8.651782E0,7.7150874E0,1.0997692E0,1.9757099E0,8.007511E0],"tree_param":{"num_deleted":"0","num_feature":"4","num_nodes":"23","size_leaf_vector":"1"}},{"base_weights":[-1.1093211E-2,-2.245339E-1,2.3431033E-1,-1.5876997E-1,-7.740572E-2,4.8721305E-1,2.7294751E-2,-2.1270569E-1,7.778155E-2,1.2029597E-1,6.332601E-1,-4.616616E-2,6.399562E-2,-3.8687225E-2,-7.093967E-3,7.780581E-2,-4.9463134E-2,8.684392E-2,4.048941E-2,1.6508035E-2,-1.3893734E-2],"categories":[],"categories_nodes":[],"categories_segments":[],"categories_sizes":[],"default_left":[0,0,0,0,0,0,0,0,0,0,0,0,0,0,0,0,0,0,0,0,0],"id":21,"left_children":[1,3,5,7,-1,9,11,13,-1,15,17,19,-1,-1,-1,-1,-1,-1,-1,-1,-1],"loss_changes":[3.5868058E0,1.1996906E0,1.6555611E0,1.8801317E0,0E0,6.8949914E-1,8.6610556E-1,7.844112E-1,0E0,2.5296285E0,1.8468332E-1,3.6648366E-1,0E0,0E0,0E0,0E0,0E0,0E0,0E0,0E0,0E0],"parents":[2147483647,0,0,1,1,2,2,3,3,5,5,6,6,7,7,9,9,10,10,11,11],"right_children":[2,4,6,8,-1,10,12,14,-1,16,18,20,-1,-1,-1,-1,-1,-1,-1,-1,-1],"split_conditions":[2.7257445E-1,2.5186256E-1,1E0,2.376496E-1,-7.740572E-2,3.5399503E-1,5.688744E-1,1.083315E-1,7.778155E-2,3.246863E-1,4.3639487E-1,3.7223127E-1,6.399562E-2,-3.8687225E-2,-7.093967E-3,7.780581E-2,-4.9463134E-2,8.684392E-2,4.048941E-2,1.6508035E-2,-1.3893734E-2],"split_indices":[0,0,1,0,0,0,0,0,0,0,0,0,0,0,0,0,0,0,0,0,0],"split_type":[0,0,0,0,0,0,0,0,0,0,0,0,0,0,0,0,0,0,0,0,0],"sum_hessian":[6.647338E1,3.5597427E1,3.087596E1,3.2943813E1,2.6536124E0,1.3288463E1,1.7587496E1,3.1880768E1,1.0630454E0,4.302608E0,8.985855E0,1.6530107E1,1.0573889E0,1.3529797E1,1.8350971E1,1.9507198E0,2.3518882E0,3.0460684E0,5.9397864E0,4.806327E0,1.1723781E1],"tree_param":{"num_deleted":"0","num_feature":"4","num_nodes":"21","size_leaf_vector":"1"}},{"base_weights":[3.4650337E-2,-1.6580427E-1,3.998438E-1,-1.061122E-1,-8.9921063E-1,6.54204E-1,1.688E-1,1.1462502E-1,-2.866783E-1,-2.8672282E-2,-1.06784895E-1,8.9992546E-2,4.760034E-1,-3.3863794E-2,3.8460404E-1,-7.747332E-4,6.785971E-2,-8.865452E-2,-1.6664064E-2,-2.663413E-2,7.093993E-2,-4.2506542E-2,4.643328E-2,8.1647925E-2,-3.4526255E-2],"categories":[],"categories_nodes":[],"categories_segments":[],"categories_sizes":[],"default_left":[0,0,0,0,0,0,0,0,0,0,0,0,0,0,0,0,0,0,0,0,0,0,0,0,0],"id":22,"left_children":[1,3,5,7,9,11,13,15,17,-1,-1,-1,19,21,23,-1,-1,-1,-1,-1,-1,-1,-1,-1,-1],"loss_changes":[4.982146E0,1.833535E0,1.3053305E0,1.7020643E0,2.2537708E-2,5.8504105E-2,6.240815E-1,1.3550338E0,1.5315516E0,0E0,0E0,0E0,1.6734012E0,1.7807475E0,2.4402657E0,0E0,0E0,0E0,0E0,0E0,0E0,0E0,0E0,0E0,0E0],"parents":[2147483647,0,0,1,1,2,2,3,3,4,4,5,5,6,6,7,7,8,8,12,12,13,13,14,14],"right_children":[2,4,6,8,10,12,14,16,18,-1,-1,-1,20,22,24,-1,-1,-1,-1,-1,-1,-1,-1,-1,-1],"split_conditions":[3.402335E-1,3.117089E-1,1E0,1E0,3.246863E-1,4.0588272E-1,1E0,2.6418808E-1,4.0562116E-2,-2.8672282E-2,-1.06784895E-1,8.9992546E-2,4.517865E-1,4.821076E-1,4.943313E-1,-7.747332E-4,6.785971E-2,-8.865452E-2,-1.6664064E-2,-2.663413E-2,7.093993E-2,-4.2506542E-2,4.643328E-2,8.1647925E-2,-3.4526255E-2],"split_indices":[0,0,2,3,0,0,3,0,0,0,0,0,0,0,0,0,0,0,0,0,0,0,0,0,0],"split_type":[0,0,0,0,0,0,0,0,0,0,0,0,0,0,0,0,0,0,0,0,0,0,0,0,0],"sum_hessian":[6.61521E1,4.306159E1,2.3090513E1,4.0879116E1,2.1824741E0,1.0118911E1,1.29716015E1,1.8557842E1,2.2321272E1,1.0541316E0,1.1283424E0,2.5511086E0,7.567802E0,7.124238E0,5.8473635E0,1.6059473E1,2.49837E0,2.6571388E0,1.9664133E1,1.7764438E0,5.7913585E0,4.072869E0,3.0513692E0,3.5990639E0,2.2482996E0],"tree_param":{"num_deleted":"0","num_feature":"4","num_nodes":"25","size_leaf_vector":"1"}},{"base_weights":[3.598413E-3,-6.637673E-2,6.927972E-2,-1.9308102E-1,1.23886466E-1,-1.423773E-1,-5.8607817E-2,1.9915363E-1,-5.172267E-2,-1.9079372E-2,9.467227E-3,1.4393493E-2,6.6448815E-2],"categories":[],"categories_nodes":[],"categories_segments":[],"categories_sizes":[],"default_left":[0,0,0,0,0,0,0,0,0,0,0,0,0],"id":23,"left_children":[1,3,-1,5,7,9,-1,11,-1,-1,-1,-1,-1],"loss_changes":[3.2503853E0,1.5000646E0,0E0,6.5675044E-1,1.3135372E0,4.1083634E-1,0E0,4.9977857E-1,0E0,0E0,0E0,0E0,0E0],"parents":[2147483647,0,0,1,1,3,3,4,4,5,5,7,7],"right_children":[2,4,-1,6,8,10,-1,12,-1,-1,-1,-1,-1],"split_conditions":[5.281993E-1,2.7257445E-1,6.927972E-2,2.5186256E-1,5.082902E-1,2.1675843E-1,-5.8607817E-2,4.9833152E-1,-5.172267E-2,-1.9079372E-2,9.467227E-3,1.4393493E-2,6.6448815E-2],"split_indices":[0,0,0,0,0,0,0,0,0,0,0,0,0],"split_type":[0,0,0,0,0,0,0,0,0,0,0,0,0],"sum_hessian":[6.5444405E1,6.023261E1,5.2117963E0,3.6146393E1,2.4086218E1,3.322239E1,2.9240015E0,2.217251E1,1.9137068E0,2.7749746E1,5.472643E0,2.0990944E1,1.1815661E0],"tree_param":{"num_deleted":"0","num_feature":"4","num_nodes":"13","size_leaf_vector":"1"}},{"base_weights":[8.5945174E-2,-3.3278245E-1,2.0983402E-1,-5.6701183E-1,-1.4107831E-1,1.786153E-1,7.240655E-2,1.8978411E-1,-1.19226456E-1,6.231695E-2,-3.2054314E-1,2.8310356E-1,9.388368E-2,3.343055E-2,1.5121218E-3,1.1375822E-2,-6.263896E-2,5.1182818E-2,1.823182E-2,1.2049139E-2,-3.181461E-2],"categories":[],"categories_nodes":[],"categories_segments":[],"categories_sizes":[],"default_left":[0,0,0,0,0,0,0,0,0,0,0,0,0,0,0,0,0,0,0,0,0],"id":24,"left_children":[1,3,5,7,9,11,-1,13,-1,-1,15,17,19,-1,-1,-1,-1,-1,-1,-1,-1],"loss_changes":[3.567448E0,6.2859833E-1,7.1577525E-1,3.4303772E0,1.5725814E0,4.2456675E-1,0E0,9.404917E-2,0E0,0E0,1.2356625E0,4.212557E-1,3.6322612E-1,0E0,0E0,0E0,0E0,0E0,0E0,0E0,0E0],"parents":[2147483647,0,0,1,1,2,2,3,3,4,4,5,5,7,7,10,10,11,11,12,12],"right_children":[2,4,6,8,10,12,-1,14,-1,-1,16,18,20,-1,-1,-1,-1,-1,-1,-1,-1],"split_conditions":[1.1033364E-1,4.449666E-2,5.688744E-1,1E0,5.4932445E-2,1E0,7.240655E-2,2.000354E-2,-1.19226456E-1,6.231695E-2,1E0,2.065264E-1,5.567434E-1,3.343055E-2,1.5121218E-3,1.1375822E-2,-6.263896E-2,5.1182818E-2,1.823182E-2,1.2049139E-2,-3.181461E-2],"split_indices":[0,0,0,3,0,1,0,0,0,0,1,0,0,0,0,0,0,0,0,0,0],"split_type":[0,0,0,0,0,0,0,0,0,0,0,0,0,0,0,0,0,0,0,0,0],"sum_hessian":[6.6423096E1,1.4780581E1,5.1642513E1,5.7713017E0,9.009279E0,4.9956993E1,1.6855189E0,2.926084E0,2.8452175E0,1.2431159E0,7.766164E0,2.13221E1,2.8634895E1,1.1010433E0,1.8250407E0,3.4686882E0,4.2974753E0,5.2742324E0,1.6047867E1,2.7562551E1,1.0723445E0],"tree_param":{"num_deleted":"0","num_feature":"4","num_nodes":"21","size_leaf_vector":"1"}},{"base_weights":[2.977478E-3,-5.2649617E-2,4.8005244E-1,1.18344136E-1,-2.022207E-1,2.9328662E-1,6.972831E-2,-1.8019353E-1,2.4436162E-1,-2.4387929E-1,3.7630636E-2,4.8914465E-1,-2.161266E-2,6.8126805E-3,-9.756467E-2,3.3038523E-2,-5.163159E-2,-1.6797304E-2,-6.477964E-2,2.2854757E-2,6.408503E-2],"categories":[],"categories_nodes":[],"categories_segments":[],"categories_sizes":[],"default_left":[0,0,0,0,0,0,0,0,0,0,0,0,0,0,0,0,0,0,0,0,0],"id":25,"left_children":[1,3,5,7,9,11,-1,13,15,17,-1,19,-1,-1,-1,-1,-1,-1,-1,-1,-1],"loss_changes":[1.777828E0,1.5595944E0,7.928753E-2,1.1217384E0,8.725704E-1,6.5318394E-1,0E0,1.8597126E0,1.5164713E0,8.3636796E-1,0E0,2.2336721E-2,0E0,0E0,0E0,0E0,0E0,0E0,0E0,0E0,0E0],"parents":[2147483647,0,0,1,1,2,2,3,3,4,4,5,5,7,7,8,8,9,9,11,11],"right_children":[2,4,6,8,10,12,-1,14,16,18,-1,20,-1,-1,-1,-1,-1,-1,-1,-1,-1],"split_conditions":[5.236855E-1,1E0,5.688744E-1,1.083315E-1,4.821076E-1,5.567434E-1,6.972831E-2,8.879289E-2,4.943313E-1,4.0588272E-1,3.7630636E-2,5.4865664E-1,-2.161266E-2,6.8126805E-3,-9.756467E-2,3.3038523E-2,-5.163159E-2,-1.6797304E-2,-6.477964E-2,2.2854757E-2,6.408503E-2],"split_indices":[0,1,0,0,0,0,0,0,0,0,0,0,0,0,0,0,0,0,0,0,0],"split_type":[0,0,0,0,0,0,0,0,0,0,0,0,0,0,0,0,0,0,0,0,0],"sum_hessian":[6.5038666E1,5.904378E1,5.994883E0,2.7646416E1,3.1397364E1,4.487142E0,1.507741E0,8.078469E0,1.9567945E1,2.982796E1,1.5694053E0,3.2697747E0,1.2173675E0,6.8533745E0,1.2250953E0,1.808807E1,1.4798756E0,2.6301165E1,3.5267951E0,2.1253715E0,1.1444031E0],"tree_param":{"num_deleted":"0","num_feature":"4","num_nodes":"21","size_leaf_vector":"1"}},{"base_weights":[-1.8923854E-2,-1.9810672E-1,2.0265564E-1,-1.1900903E-2,-3.4367082E-1,1.0845152E-1,4.8974848E-1,3.6722368E-1,-1.2987311E-1,-8.876339E-1,-2.0661762E-1,3.0029455E-1,-1.6165765E-1,8.101471E-2,1.4715615E-1,9.474286E-2,-3.475307E-2,-4.6432316E-2,6.33232E-3,-1.04408674E-1,-3.2013316E-2,3.8665289E-3,-4.4861674E-2,1.5124315E-2,8.376049E-2,-4.7624543E-2,3.5370358E-3,2.4120152E-2,-2.5138212E-3],"categories":[],"categories_nodes":[],"categories_segments":[],"categories_sizes":[],"default_left":[0,0,0,0,0,0,0,0,0,0,0,0,0,0,0,0,0,0,0,0,0,0,0,0,0,0,0,0,0],"id":26,"left_children":[1,3,5,7,9,11,13,15,17,19,21,23,25,-1,27,-1,-1,-1,-1,-1,-1,-1,-1,-1,-1,-1,-1,-1,-1],"loss_changes":[2.6928859E0,1.0109031E0,7.6817846E-1,8.288659E-1,1.380786E0,1.2999154E0,6.730931E-1,2.1565552E0,9.3784565E-1,1.3712168E-2,1.0894839E0,1.0321918E0,6.787491E-1,0E0,8.2385555E-2,0E0,0E0,0E0,0E0,0E0,0E0,0E0,0E0,0E0,0E0,0E0,0E0,0E0,0E0],"parents":[2147483647,0,0,1,1,2,2,3,3,4,4,5,5,6,6,7,7,8,8,9,9,10,10,11,11,12,12,14,14],"right_children":[2,4,6,8,10,12,14,16,18,20,22,24,26,-1,28,-1,-1,-1,-1,-1,-1,-1,-1,-1,-1,-1,-1,-1,-1],"split_conditions":[2.6776382E-1,1E0,5.236855E-1,5.4897364E-2,4.449666E-2,4.067242E-1,1E0,1E0,1.1450292E-1,1E0,1E0,3.84943E-1,4.517865E-1,8.101471E-2,5.567434E-1,9.474286E-2,-3.475307E-2,-4.6432316E-2,6.33232E-3,-1.04408674E-1,-3.2013316E-2,3.8665289E-3,-4.4861674E-2,1.5124315E-2,8.376049E-2,-4.7624543E-2,3.5370358E-3,2.4120152E-2,-2.5138212E-3],"split_indices":[0,3,0,0,0,0,2,2,0,2,2,0,0,0,0,0,0,0,0,0,0,0,0,0,0,0,0,0,0],"split_type":[0,0,0,0,0,0,0,0,0,0,0,0,0,0,0,0,0,0,0,0,0,0,0,0,0,0,0,0,0],"sum_hessian":[6.581413E1,3.6446877E1,2.936726E1,1.6465693E1,1.9981184E1,2.3149082E1,6.2181787E0,3.4062634E0,1.3059429E1,2.919026E0,1.7062157E1,1.3470212E1,9.678869E0,2.5079465E0,3.7102323E0,1.7004145E0,1.7058489E0,4.267833E0,8.791595E0,1.6298887E0,1.2891372E0,8.890869E0,8.171288E0,1.1548194E1,1.9220185E0,3.1816664E0,6.497203E0,2.141419E0,1.5688133E0],"tree_param":{"num_deleted":"0","num_feature":"4","num_nodes":"29","size_leaf_vector":"1"}},{"base_weights":[-2.1364538E-2,-3.556805E-1,1.8099493E-1,-7.8043364E-2,-6.31405E-1,8.553209E-2,6.89381E-2,-2.596997E-1,3.1887743E-1,-3.2866186E-1,-1.03036106E-1,1.3480173E-1,-7.613735E-2,1.5397866E-2,-3.9964188E-2,7.720678E-2,-5.872264E-2,-9.898665E-2,8.299715E-3,2.904431E-2,5.0443236E-5],"categories":[],"categories_nodes":[],"categories_segments":[],"categories_sizes":[],"default_left":[0,0,0,0,0,0,0,0,0,0,0,0,0,0,0,0,0,0,0,0,0],"id":27,"left_children":[1,3,5,7,9,11,-1,13,15,17,-1,19,-1,-1,-1,-1,-1,-1,-1,-1,-1],"loss_changes":[4.420675E0,1.8352075E0,1.9199511E0,1.0495085E0,1.1361151E0,1.5827196E0,0E0,6.259056E-1,2.3662534E0,2.3714275E0,0E0,7.1827084E-1,0E0,0E0,0E0,0E0,0E0,0E0,0E0,0E0,0E0],"parents":[2147483647,0,0,1,1,2,2,3,3,4,4,5,5,7,7,8,8,9,9,11,11],"right_children":[2,4,6,8,10,12,-1,14,16,18,-1,20,-1,-1,-1,-1,-1,-1,-1,-1,-1],"split_conditions":[1.8384635E-1,1E0,5.236855E-1,1.2036403E-1,1.1433435E-1,5.082902E-1,6.89381E-2,3.85272E-2,1.6154657E-1,3.9838932E-2,-1.03036106E-1,1E0,-7.613735E-2,1.5397866E-2,-3.9964188E-2,7.720678E-2,-5.872264E-2,-9.898665E-2,8.299715E-3,2.904431E-2,5.0443236E-5],"split_indices":[0,2,0,0,0,0,0,0,0,0,0,1,0,0,0,0,0,0,0,0,0],"split_type":[0,0,0,0,0,0,0,0,0,0,0,0,0,0,0,0,0,0,0,0,0],"sum_hessian":[6.339275E1,2.3617258E1,3.9775494E1,1.2407122E1,1.1210137E1,3.4470913E1,5.304578E0,8.748817E0,3.6583045E0,7.410539E0,3.7995977E0,3.3370388E1,1.1005278E0,2.1861396E0,6.5626774E0,2.5372283E0,1.1210761E0,2.3044941E0,5.1060452E0,1.4918351E1,1.8452036E1],"tree_param":{"num_deleted":"0","num_feature":"4","num_nodes":"21","size_leaf_vector":"1"}},{"base_weights":[6.1440036E-2,-2.2350286E-1,1.8654834E-1,-3.8202558E-2,-3.9112735E-1,8.459847E-1,7.293615E-2,-2.9426146E-1,2.6954585E-1,-9.4569355E-2,-2.0458019E-1,1.0568675E-1,3.8046947E-1,-3.4516954E-1,1.6187927E-1,2.0949481E-2,-6.5063976E-2,5.8583062E-2,4.8396545E-3,2.6477326E-2,-5.822744E-2,-4.0936396E-3,5.9863478E-2,-7.3075436E-2,7.659469E-3,8.162194E-2,1.11526055E-2],"categories":[],"categories_nodes":[],"categories_segments":[],"categories_sizes":[],"default_left":[0,0,0,0,0,0,0,0,0,0,0,0,0,0,0,0,0,0,0,0,0,0,0,0,0,0,0],"id":28,"left_children":[1,3,5,7,9,11,13,15,17,-1,19,-1,21,23,25,-1,-1,-1,-1,-1,-1,-1,-1,-1,-1,-1,-1],"loss_changes":[2.343546E0,6.111094E-1,3.3407717E0,9.2102367E-1,8.901254E-1,2.4385643E-1,1.5372323E0,1.2688339E0,3.4746516E-1,0E0,1.7698E0,0E0,3.567623E-1,1.2442448E0,1.013651E0,0E0,0E0,0E0,0E0,0E0,0E0,0E0,0E0,0E0,0E0,0E0,0E0],"parents":[2147483647,0,0,1,1,2,2,3,3,4,4,5,5,6,6,7,7,8,8,10,10,12,12,13,13,14,14],"right_children":[2,4,6,8,10,12,14,16,18,-1,20,-1,22,24,26,-1,-1,-1,-1,-1,-1,-1,-1,-1,-1,-1,-1],"split_conditions":[1.363077E-1,1E0,1.9791137E-1,8.7275974E-2,2.2834372E-2,1E0,2.376496E-1,3.85272E-2,9.960669E-2,-9.4569355E-2,7.841055E-2,1.0568675E-1,1E0,1E0,2.5186256E-1,2.0949481E-2,-6.5063976E-2,5.8583062E-2,4.8396545E-3,2.6477326E-2,-5.822744E-2,-4.0936396E-3,5.9863478E-2,-7.3075436E-2,7.659469E-3,8.162194E-2,1.11526055E-2],"split_indices":[0,2,0,0,0,1,0,0,0,0,0,0,2,2,0,0,0,0,0,0,0,0,0,0,0,0,0],"split_type":[0,0,0,0,0,0,0,0,0,0,0,0,0,0,0,0,0,0,0,0,0,0,0,0,0,0,0],"sum_hessian":[6.3570385E1,1.915563E1,4.4414757E1,9.681325E0,9.474304E0,5.5800967E0,3.883466E1,5.3083725E0,4.3729525E0,1.3604641E0,8.11384E0,2.9661052E0,2.6139913E0,6.3067884E0,3.252787E1,2.3701785E0,2.938194E0,1.1208705E0,3.2520819E0,3.7512312E0,4.3626094E0,1.1687692E0,1.445222E0,2.9119842E0,3.3948042E0,1.2374421E0,3.129043E1],"tree_param":{"num_deleted":"0","num_feature":"4","num_nodes":"27","size_leaf_vector":"1"}},{"base_weights":[6.0022953E-3,-9.743522E-2,2.7335146E-1,-5.800601E-2,-8.673025E-2,7.9632506E-2,1.7298515E-1,-1.061663E-1,7.5436406E-2,-1.1009932E-1,3.453059E-1,-4.9057808E-2,-7.119251E-3,-3.6458086E-2,2.8711203E-2,5.88666E-2,9.589012E-3],"categories":[],"categories_nodes":[],"categories_segments":[],"categories_sizes":[],"default_left":[0,0,0,0,0,0,0,0,0,0,0,0,0,0,0,0,0],"id":29,"left_children":[1,3,5,7,-1,-1,9,11,-1,13,15,-1,-1,-1,-1,-1,-1],"loss_changes":[1.8500084E0,1.4152067E0,8.4151447E-1,1.9188492E0,0E0,0E0,8.638944E-1,5.7335865E-1,0E0,8.288789E-1,5.9700954E-1,0E0,0E0,0E0,0E0,0E0,0E0],"parents":[2147483647,0,0,1,1,2,2,3,3,6,6,7,7,9,9,10,10],"right_children":[2,4,6,8,-1,-1,10,12,-1,14,16,-1,-1,-1,-1,-1,-1],"split_conditions":[3.84943E-1,3.7753576E-1,4.067242E-1,3.5399503E-1,-8.673025E-2,7.9632506E-2,4.821076E-1,2.2834372E-2,7.5436406E-2,1E0,1E0,-4.9057808E-2,-7.119251E-3,-3.6458086E-2,2.8711203E-2,5.88666E-2,9.589012E-3],"split_indices":[0,0,0,0,0,0,0,0,0,3,3,0,0,0,0,0,0],"split_type":[0,0,0,0,0,0,0,0,0,0,0,0,0,0,0,0,0],"sum_hessian":[6.493545E1,4.7278805E1,1.7656641E1,4.5998318E1,1.2804857E0,1.7264628E0,1.5930178E1,4.4244644E1,1.7536732E0,6.164447E0,9.765731E0,2.6033297E0,4.1641315E1,3.8073435E0,2.357103E0,4.2544227E0,5.511308E0],"tree_param":{"num_deleted":"0","num_feature":"4","num_nodes":"17","size_leaf_vector":"1"}},{"base_weights":[1.5389848E-2,-6.491505E-2,2.2007285E-1,-3.024671E-2,-6.915761E-2,7.703964E-2,1.213878E-1,-7.155766E-2,7.092709E-2,-2.4719242E-2,4.2479214E-1,-3.3945532E-3,-4.5219004E-2,-2.8051486E-2,2.0841086E-2,6.903168E-2,1.3564023E-2],"categories":[],"categories_nodes":[],"categories_segments":[],"categories_sizes":[],"default_left":[0,0,0,0,0,0,0,0,0,0,0,0,0,0,0,0,0],"id":30,"left_children":[1,3,5,7,-1,-1,9,11,-1,13,15,-1,-1,-1,-1,-1,-1],"loss_changes":[1.0870702E0,1.0142384E0,9.176426E-1,1.4620328E0,0E0,0E0,7.629806E-1,6.24017E-1,0E0,7.980587E-1,3.3419442E-1,0E0,0E0,0E0,0E0,0E0,0E0],"parents":[2147483647,0,0,1,1,2,2,3,3,6,6,7,7,9,9,10,10],"right_children":[2,4,6,8,-1,-1,10,12,-1,14,16,-1,-1,-1,-1,-1,-1],"split_conditions":[3.84943E-1,3.7753576E-1,4.067242E-1,3.5399503E-1,-6.915761E-2,7.703964E-2,5.281993E-1,3.246863E-1,7.092709E-2,1E0,1E0,-3.3945532E-3,-4.5219004E-2,-2.8051486E-2,2.0841086E-2,6.903168E-2,1.3564023E-2],"split_indices":[0,0,0,0,0,0,0,0,0,3,2,0,0,0,0,0,0],"split_type":[0,0,0,0,0,0,0,0,0,0,0,0,0,0,0,0,0],"sum_hessian":[6.4266235E1,4.6647503E1,1.7618732E1,4.519545E1,1.4520509E0,1.6440371E0,1.5974695E1,4.3659767E1,1.5356857E0,1.1402329E1,4.5723653E0,4.072474E1,2.9350271E0,5.3399553E0,6.062374E0,1.660325E0,2.9120402E0],"tree_param":{"num_deleted":"0","num_feature":"4","num_nodes":"17","size_leaf_vector":"1"}},{"base_weights":[-2.9945968E-2,-2.3026556E-1,1.3296004E-1,6.42127E-2,-4.4573775E-1,1.0099256E-1,7.173541E-2,4.2818305E-1,-1.9812824E-1,-1.054675E-1,-2.616043E-1,-1.2965988E-2,4.196466E-1,7.343244E-2,8.403789E-3,2.2812097E-3,-6.620493E-2,2.1023382E-2,-3.6793303E-2,4.779983E-3,-5.572293E-2,7.399943E-2,1.3758703E-2],"categories":[],"categories_nodes":[],"categories_segments":[],"categories_sizes":[],"default_left":[0,0,0,0,0,0,0,0,0,0,0,0,0,0,0,0,0,0,0,0,0,0,0],"id":31,"left_children":[1,3,5,7,9,-1,11,13,15,-1,17,19,21,-1,-1,-1,-1,-1,-1,-1,-1,-1,-1],"loss_changes":[2.0899327E0,1.8476887E0,1.8301983E0,1.3249398E0,1.5944543E0,0E0,1.0132756E0,5.447643E-1,8.5878533E-1,0E0,7.866472E-1,9.683532E-1,5.059345E-1,0E0,0E0,0E0,0E0,0E0,0E0,0E0,0E0,0E0,0E0],"parents":[2147483647,0,0,1,1,2,2,3,3,4,4,6,6,7,7,8,8,10,10,11,11,12,12],"right_children":[2,4,6,8,10,-1,12,14,16,-1,18,20,22,-1,-1,-1,-1,-1,-1,-1,-1,-1,-1],"split_conditions":[2.1675843E-1,1E0,2.2577271E-1,1E0,4.449666E-2,1.0099256E-1,5.162002E-1,8.879289E-2,1.6977172E-1,-1.054675E-1,7.841055E-2,4.943313E-1,1E0,7.343244E-2,8.403789E-3,2.2812097E-3,-6.620493E-2,2.1023382E-2,-3.6793303E-2,4.779983E-3,-5.572293E-2,7.399943E-2,1.3758703E-2],"split_indices":[0,3,0,1,0,0,0,0,0,0,0,0,1,0,0,0,0,0,0,0,0,0,0],"split_type":[0,0,0,0,0,0,0,0,0,0,0,0,0,0,0,0,0,0,0,0,0,0,0],"sum_hessian":[6.210483E1,2.7668453E1,3.443638E1,1.198752E1,1.5680932E1,1.2360532E0,3.3200325E1,4.756381E0,7.231139E0,2.5430799E0,1.3137852E1,2.7474257E1,5.7260675E0,1.917165E0,2.8392162E0,5.542416E0,1.6887232E0,2.2364235E0,1.0901428E1,2.5535454E1,1.9388028E0,1.9208891E0,3.8051782E0],"tree_param":{"num_deleted":"0","num_feature":"4","num_nodes":"23","size_leaf_vector":"1"}},{"base_weights":[-1.2271426E-2,7.296763E-2,-7.938598E-2,1.6182297E-1,-1.3544522E-2,-1.4958527E-2,-1.2782347E-1,3.182335E-2,6.453652E-3,-2.2198828E-3,-3.553938E-4,4.4114087E-3,-6.4776316E-3,-6.7946613E-3,-1.9388791E-2],"categories":[],"categories_nodes":[],"categories_segments":[],"categories_sizes":[],"default_left":[0,0,0,0,0,0,0,0,0,0,0,0,0,0,0],"id":32,"left_children":[1,3,5,7,9,11,13,-1,-1,-1,-1,-1,-1,-1,-1],"loss_changes":[3.7062004E-1,2.2214904E-1,1.1092754E-1,1.9543251E-1,1.2544219E-3,5.1857408E-2,6.795007E-2,0E0,0E0,0E0,0E0,0E0,0E0,0E0,0E0],"parents":[2147483647,0,0,1,1,2,2,3,3,4,4,5,5,6,6],"right_children":[2,4,6,8,10,12,14,-1,-1,-1,-1,-1,-1,-1,-1],"split_conditions":[1E0,1E0,1E0,1E0,1E0,1E0,1E0,3.182335E-2,6.453652E-3,-2.2198828E-3,-3.553938E-4,4.4114087E-3,-6.4776316E-3,-6.7946613E-3,-1.9388791E-2],"split_indices":[2,1,1,3,3,3,3,0,0,0,0,0,0,0,0],"split_type":[0,0,0,0,0,0,0,0,0,0,0,0,0,0,0],"sum_hessian":[6.2772312E1,2.7613934E1,3.5158375E1,1.3193038E1,1.4420897E1,1.5650382E1,1.9507994E1,4.1882915E0,9.004746E0,7.0724444E0,7.348452E0,7.2124915E0,8.437891E0,1.1297293E1,8.210701E0],"tree_param":{"num_deleted":"0","num_feature":"4","num_nodes":"15","size_leaf_vector":"1"}},{"base_weights":[-1.3701904E-2,-1.6234875E-1,1.688361E-1,-3.1760707E-2,-3.627617E-1,7.756796E-2,1.0734493E-1,3.2412478E-1,-2.3210217E-1,-7.5303085E-2,-2.5974438E-1,2.7229246E-3,4.7542256E-1,7.098824E-4,9.992921E-2,-7.481501E-2,-1.3491279E-2,3.1374246E-2,-3.9414592E-2,8.375219E-3,-8.430456E-2,7.488571E-2,1.948287E-2],"categories":[],"categories_nodes":[],"categories_segments":[],"categories_sizes":[],"default_left":[0,0,0,0,0,0,0,0,0,0,0,0,0,0,0,0,0,0,0,0,0,0,0],"id":33,"left_children":[1,3,5,7,9,-1,11,13,15,-1,17,19,21,-1,-1,-1,-1,-1,-1,-1,-1,-1,-1],"loss_changes":[1.7210422E0,9.0219253E-1,9.804324E-1,1.6605282E0,3.543173E-1,0E0,1.0401213E0,1.7963971E0,6.4179593E-1,0E0,1.0754119E0,1.5826765E0,3.128898E-1,0E0,0E0,0E0,0E0,0E0,0E0,0E0,0E0,0E0,0E0],"parents":[2147483647,0,0,1,1,2,2,3,3,4,4,6,6,7,7,8,8,10,10,11,11,12,12],"right_children":[2,4,6,8,10,-1,12,14,16,-1,18,20,22,-1,-1,-1,-1,-1,-1,-1,-1,-1,-1],"split_conditions":[2.6776382E-1,1.7558523E-1,2.799727E-1,1E0,1.8634212E-1,7.756796E-2,5.236855E-1,1.1450292E-1,2.6365206E-2,-7.5303085E-2,1.9791137E-1,5.070446E-1,5.455076E-1,7.098824E-4,9.992921E-2,-7.481501E-2,-1.3491279E-2,3.1374246E-2,-3.9414592E-2,8.375219E-3,-8.430456E-2,7.488571E-2,1.948287E-2],"split_indices":[0,0,0,3,0,0,0,0,0,0,0,0,0,0,0,0,0,0,0,0,0,0,0],"split_type":[0,0,0,0,0,0,0,0,0,0,0,0,0,0,0,0,0,0,0,0,0,0,0],"sum_hessian":[6.1418022E1,3.391252E1,2.7505503E1,2.1234625E1,1.2677896E1,1.4620776E0,2.6043425E1,7.425732E0,1.3808893E1,1.3299154E0,1.134798E1,2.1063698E1,4.979727E0,5.740694E0,1.6850384E0,1.1269977E0,1.2681895E1,1.9012108E0,9.446769E0,2.0044317E1,1.0193807E0,1.6768409E0,3.3028858E0],"tree_param":{"num_deleted":"0","num_feature":"4","num_nodes":"23","size_leaf_vector":"1"}},{"base_weights":[-7.725952E-3,-5.0624896E-2,6.173082E-2,-5.315921E-1,-2.1660777E-2,9.227129E-3,-8.745988E-2,3.948979E-1,-5.1939458E-2,2.8876557E-3,6.557404E-2,-8.491928E-2,-1.6326936E-3],"categories":[],"categories_nodes":[],"categories_segments":[],"categories_sizes":[],"default_left":[0,0,0,0,0,0,0,0,0,0,0,0,0],"id":34,"left_children":[1,3,-1,5,7,-1,-1,9,11,-1,-1,-1,-1],"loss_changes":[1.6755341E0,8.00776E-1,0E0,7.8033346E-1,7.2732913E-1,0E0,0E0,3.547113E-1,1.4944979E0,0E0,0E0,0E0,0E0],"parents":[2147483647,0,0,1,1,3,3,4,4,7,7,8,8],"right_children":[2,4,-1,6,8,-1,-1,10,12,-1,-1,-1,-1],"split_conditions":[5.4865664E-1,2.2834372E-2,6.173082E-2,1E0,5.4897364E-2,9.227129E-3,-8.745988E-2,3.711925E-2,6.7630194E-2,2.8876557E-3,6.557404E-2,-8.491928E-2,-1.6326936E-3],"split_indices":[0,0,0,2,0,0,0,0,0,0,0,0,0],"split_type":[0,0,0,0,0,0,0,0,0,0,0,0,0],"sum_hessian":[6.0323402E1,5.7309025E1,3.014375E0,2.2694774E0,5.5039547E1,1.0644464E0,1.2050309E0,2.913601E0,5.2125946E1,1.6745423E0,1.2390587E0,1.2520099E0,5.087394E1],"tree_param":{"num_deleted":"0","num_feature":"4","num_nodes":"13","size_leaf_vector":"1"}},{"base_weights":[-9.3467324E-4,-1.2309442E-1,2.5186455E-1,3.0488297E-2,-2.5210688E-1,4.5037776E-2,4.2331064E-1,1.2154767E-1,-6.7355245E-2,-7.6041766E-2,-1.8811291E-1,5.085976E-1,-2.621034E-1,5.299753E-1,-2.387338E-2,1.2796748E-3,6.201453E-2,2.1537013E-2,-2.3728909E-2,8.366218E-3,7.4179925E-2,-6.460389E-2,3.0610964E-2,2.4629317E-2,7.158339E-2],"categories":[],"categories_nodes":[],"categories_segments":[],"categories_sizes":[],"default_left":[0,0,0,0,0,0,0,0,0,0,0,0,0,0,0,0,0,0,0,0,0,0,0,0,0],"id":35,"left_children":[1,3,5,7,9,11,13,15,-1,-1,17,19,21,23,-1,-1,-1,-1,-1,-1,-1,-1,-1,-1,-1],"loss_changes":[1.9797544E0,8.639779E-1,7.215823E-1,1.4039062E0,6.244657E-1,1.6404907E0,9.2458177E-1,1.0281012E0,0E0,0E0,4.932813E-1,3.8969147E-1,1.7307557E0,3.5324597E-1,0E0,0E0,0E0,0E0,0E0,0E0,0E0,0E0,0E0,0E0,0E0],"parents":[2147483647,0,0,1,1,2,2,3,3,4,4,5,5,6,6,7,7,10,10,11,11,12,12,13,13],"right_children":[2,4,6,8,10,12,14,16,-1,-1,18,20,22,24,-1,-1,-1,-1,-1,-1,-1,-1,-1,-1,-1],"split_conditions":[3.402335E-1,1E0,1E0,3.246863E-1,2.6365206E-2,1E0,5.455076E-1,2.6418808E-1,-6.7355245E-2,-7.6041766E-2,5.4897364E-2,4.4657534E-1,4.821076E-1,1E0,-2.387338E-2,1.2796748E-3,6.201453E-2,2.1537013E-2,-2.3728909E-2,8.366218E-3,7.4179925E-2,-6.460389E-2,3.0610964E-2,2.4629317E-2,7.158339E-2],"split_indices":[0,3,3,0,0,2,0,0,0,0,0,0,0,2,0,0,0,0,0,0,0,0,0,0,0],"split_type":[0,0,0,0,0,0,0,0,0,0,0,0,0,0,0,0,0,0,0,0,0,0,0,0,0],"sum_hessian":[6.210337E1,4.221632E1,1.9887047E1,1.962155E1,2.2594772E1,9.58578E0,1.0301268E1,1.8106983E1,1.5145677E0,1.3096256E0,2.1285147E1,3.558749E0,6.027031E0,9.043689E0,1.2575785E0,1.5706784E1,2.4001977E0,1.9452336E0,1.9339912E1,1.7424484E0,1.8163004E0,3.51501E0,2.5120206E0,4.50014E0,4.543549E0],"tree_param":{"num_deleted":"0","num_feature":"4","num_nodes":"25","size_leaf_vector":"1"}},{"base_weights":[-8.379995E-3,9.8245054E-2,-9.499745E-2,1.8169476E-1,3.6240593E-2,1.9540707E-2,-1.8196595E-1,3.354546E-2,7.399251E-3,-2.4381808E-3,1.0487727E-2,1.4785594E-2,-8.666418E-3,-1.3114191E-2,-2.278549E-2],"categories":[],"categories_nodes":[],"categories_segments":[],"categories_sizes":[],"default_left":[0,0,0,0,0,0,0,0,0,0,0,0,0,0,0],"id":36,"left_children":[1,3,5,7,9,11,13,-1,-1,-1,-1,-1,-1,-1,-1],"loss_changes":[5.753457E-1,1.3809747E-1,3.4546515E-1,1.6844594E-1,7.450537E-2,2.2700039E-1,1.5847504E-2,0E0,0E0,0E0,0E0,0E0,0E0,0E0,0E0],"parents":[2147483647,0,0,1,1,2,2,3,3,4,4,5,5,6,6],"right_children":[2,4,6,8,10,12,14,-1,-1,-1,-1,-1,-1,-1,-1],"split_conditions":[1E0,1E0,1E0,1E0,1E0,1E0,1E0,3.354546E-2,7.399251E-3,-2.4381808E-3,1.0487727E-2,1.4785594E-2,-8.666418E-3,-1.3114191E-2,-2.278549E-2],"split_indices":[2,3,1,1,1,3,3,0,0,0,0,0,0,0,0],"split_type":[0,0,0,0,0,0,0,0,0,0,0,0,0,0,0],"sum_hessian":[6.0286026E1,2.6961948E1,3.3324078E1,1.0670515E1,1.6291433E1,1.4716996E1,1.860708E1,3.524358E0,7.146157E0,8.993138E0,7.298296E0,6.487144E0,8.229853E0,1.0659272E1,7.947808E0],"tree_param":{"num_deleted":"0","num_feature":"4","num_nodes":"15","size_leaf_vector":"1"}},{"base_weights":[3.0702354E-2,1.1598794E-1,-4.5153055E-2,2.1361755E-2,4.7436147E-3,1.713657E-2,-1.17912125E-2,-2.820948E-3,4.901936E-3],"categories":[],"categories_nodes":[],"categories_segments":[],"categories_sizes":[],"default_left":[0,0,0,0,0,0,0,0,0],"id":37,"left_children":[1,3,5,-1,-1,7,-1,-1,-1],"loss_changes":[4.1257975E-1,1.901133E-1,1.5631516E-1,0E0,0E0,2.9163083E-2,0E0,0E0,0E0],"parents":[2147483647,0,0,1,1,2,2,5,5],"right_children":[2,4,6,-1,-1,8,-1,-1,-1],"split_conditions":[1E0,1E0,1E0,2.1361755E-2,4.7436147E-3,1E0,-1.17912125E-2,-2.820948E-3,4.901936E-3],"split_indices":[1,3,3,0,0,2,0,0,0],"split_type":[0,0,0,0,0,0,0,0,0],"sum_hessian":[6.196476E1,2.8920198E1,3.304456E1,1.105699E1,1.7863209E1,1.8215014E1,1.4829547E1,7.567364E0,1.064765E1],"tree_param":{"num_deleted":"0","num_feature":"4","num_nodes":"9","size_leaf_vector":"1"}},{"base_weights":[-2.0925159E-2,-1.7369328E-1,1.363671E-1,-9.9474706E-2,-7.713588E-2,8.123066E-2,8.208652E-2,-1.4771423E-1,4.3267064E-2,-3.545579E-2,1.2863411E-1,-6.805848E-3,-8.7541685E-2,2.818732E-2,1.5961583E-3],"categories":[],"categories_nodes":[],"categories_segments":[],"categories_sizes":[],"default_left":[0,0,0,0,0,0,0,0,0,0,0,0,0,0,0],"id":38,"left_children":[1,3,5,7,-1,-1,9,11,-1,-1,13,-1,-1,-1,-1],"loss_changes":[1.5280472E0,1.3515606E0,1.085625E0,8.2864624E-1,0E0,0E0,6.590906E-1,1.5669318E0,0E0,0E0,4.7911796E-1,0E0,0E0,0E0,0E0],"parents":[2147483647,0,0,1,1,2,2,3,3,6,6,7,7,10,10],"right_children":[2,4,6,8,-1,-1,10,12,-1,-1,14,-1,-1,-1,-1],"split_conditions":[2.376496E-1,2.2577271E-1,2.5186256E-1,2.1675843E-1,-7.713588E-2,8.123066E-2,2.6776382E-1,1.9791137E-1,4.3267064E-2,-3.545579E-2,1E0,-6.805848E-3,-8.7541685E-2,2.818732E-2,1.5961583E-3],"split_indices":[0,0,0,0,0,0,0,0,0,0,2,0,0,0,0],"split_type":[0,0,0,0,0,0,0,0,0,0,0,0,0,0,0],"sum_hessian":[6.160543E1,3.1199266E1,3.0406164E1,2.8790482E1,2.4087853E0,1.2221496E0,2.9184015E1,2.7059893E1,1.7305896E0,2.17395E0,2.7010065E1,2.5375738E1,1.6841533E0,1.0808447E1,1.6201618E1],"tree_param":{"num_deleted":"0","num_feature":"4","num_nodes":"15","size_leaf_vector":"1"}},{"base_weights":[2.6426425E-3,8.0593035E-2,-5.95617E-2,1.872243E-1,1.3371934E-3,-1.49149755E-2,-9.2652306E-2,2.811168E-2,1.0153375E-2,-1.1387243E-2,1.4363075E-2,-6.4030285E-3,3.5983908E-3,-6.459026E-3,-1.2277543E-2],"categories":[],"categories_nodes":[],"categories_segments":[],"categories_sizes":[],"default_left":[0,0,0,0,0,0,0,0,0,0,0,0,0,0,0],"id":39,"left_children":[1,3,5,7,9,11,13,-1,-1,-1,-1,-1,-1,-1,-1],"loss_changes":[3.005908E-1,2.3215066E-1,4.9592145E-2,6.5733224E-2,2.9146886E-1,4.1999597E-2,8.658469E-3,0E0,0E0,0E0,0E0,0E0,0E0,0E0,0E0],"parents":[2147483647,0,0,1,1,2,2,3,3,4,4,5,5,6,6],"right_children":[2,4,6,8,10,12,14,-1,-1,-1,-1,-1,-1,-1,-1],"split_conditions":[1E0,1E0,1E0,1E0,1E0,1E0,1E0,2.811168E-2,1.0153375E-2,-1.1387243E-2,1.4363075E-2,-6.4030285E-3,3.5983908E-3,-6.459026E-3,-1.2277543E-2],"split_indices":[1,3,2,2,2,3,3,0,0,0,0,0,0,0,0],"split_type":[0,0,0,0,0,0,0,0,0,0,0,0,0,0,0],"sum_hessian":[6.000218E1,2.6499336E1,3.3502842E1,1.0717573E1,1.5781763E1,1.4878758E1,1.8624084E1,4.025818E0,6.691755E0,8.831209E0,6.9505544E0,7.4407525E0,7.438006E0,1.1269692E1,7.3543916E0],"tree_param":{"num_deleted":"0","num_feature":"4","num_nodes":"15","size_leaf_vector":"1"}},{"base_weights":[2.0247929E-2,-2.6876104E-1,1.0096197E-1,-1.4443971E-1,-8.21925E-2,6.473608E-2,4.9863648E-2,-2.936053E-1,1.4755735E-1,-5.5636358E-2,9.587977E-2,-1.082816E-2,-6.251305E-2,4.9503975E-2,-1.7727848E-2,-3.078191E-3,2.3756161E-2],"categories":[],"categories_nodes":[],"categories_segments":[],"categories_sizes":[],"default_left":[0,0,0,0,0,0,0,0,0,0,0,0,0,0,0,0,0],"id":40,"left_children":[1,3,5,7,-1,-1,9,11,13,-1,15,-1,-1,-1,-1,-1,-1],"loss_changes":[1.4468101E0,8.1375486E-1,1.3162664E0,5.783776E-1,0E0,0E0,1.3157331E0,4.5240843E-1,6.31713E-1,0E0,7.774221E-1,0E0,0E0,0E0,0E0,0E0,0E0],"parents":[2147483647,0,0,1,1,2,2,3,3,6,6,7,7,8,8,10,10],"right_children":[2,4,6,8,-1,-1,10,12,14,-1,16,-1,-1,-1,-1,-1,-1],"split_conditions":[1.1033364E-1,9.267665E-2,1.2542245E-1,7.005389E-2,-8.21925E-2,6.473608E-2,1.4193034E-1,5.4897364E-2,7.841055E-2,-5.5636358E-2,3.402335E-1,-1.082816E-2,-6.251305E-2,4.9503975E-2,-1.7727848E-2,-3.078191E-3,2.3756161E-2],"split_indices":[0,0,0,0,0,0,0,0,0,0,0,0,0,0,0,0,0],"split_type":[0,0,0,0,0,0,0,0,0,0,0,0,0,0,0,0,0],"sum_hessian":[5.985954E1,1.255929E1,4.730025E1,1.1284305E1,1.2749854E0,3.0472128E0,4.4253036E1,7.465218E0,3.8190858E0,2.3396263E0,4.191341E1,5.6393948E0,1.8258235E0,1.5920616E0,2.2270243E0,2.2543003E1,1.9370407E1],"tree_param":{"num_deleted":"0","num_feature":"4","num_nodes":"17","size_leaf_vector":"1"}},{"base_weights":[-1.0215319E-2,-2.936122E-2,5.6467216E-2,-4.456817E-2,-7.7314074E-3,4.0260682E-1,-4.2082164E-2,-2.2658564E-3,7.5975284E-2,-8.1934236E-2,-7.276208E-4],"categories":[],"categories_nodes":[],"categories_segments":[],"categories_sizes":[],"default_left":[0,0,0,0,0,0,0,0,0,0,0],"id":41,"left_children":[1,3,-1,-1,5,7,9,-1,-1,-1,-1],"loss_changes":[6.943901E-1,5.417779E-1,0E0,0E0,8.425753E-1,7.1880573E-1,1.4807566E0,0E0,0E0,0E0,0E0],"parents":[2147483647,0,0,1,1,4,4,5,5,6,6],"right_children":[2,4,-1,-1,6,8,10,-1,-1,-1,-1],"split_conditions":[5.688744E-1,2.2834372E-2,5.6467216E-2,-4.456817E-2,5.4897364E-2,1E0,6.7630194E-2,-2.2658564E-3,7.5975284E-2,-8.1934236E-2,-7.276208E-4],"split_indices":[0,0,0,0,0,2,0,0,0,0,0],"split_type":[0,0,0,0,0,0,0,0,0,0,0],"sum_hessian":[6.0581425E1,5.9547207E1,1.0342174E0,1.9726965E0,5.7574512E1,3.6193206E0,5.3955193E1,2.0796137E0,1.5397071E0,1.3464737E0,5.260872E1],"tree_param":{"num_deleted":"0","num_feature":"4","num_nodes":"11","size_leaf_vector":"1"}},{"base_weights":[-1.9293005E-2,6.508593E-2,-9.267134E-2,1.443847E-1,-9.646854E-3,-3.3173986E-2,-1.3334826E-1,3.9854746E-2,1.3673118E-3,-2.609979E-3,5.133913E-4,-4.1776495E-3,-2.0857228E-3,-1.5157868E-2,-9.015194E-3],"categories":[],"categories_nodes":[],"categories_segments":[],"categories_sizes":[],"default_left":[0,0,0,0,0,0,0,0,0,0,0,0,0,0,0],"id":42,"left_children":[1,3,5,7,9,11,13,-1,-1,-1,-1,-1,-1,-1,-1],"loss_changes":[3.919391E-1,1.7667969E-1,7.7255875E-2,4.7339067E-1,4.0650796E-3,7.217489E-4,1.8593669E-3,0E0,0E0,0E0,0E0,0E0,0E0,0E0,0E0],"parents":[2147483647,0,0,1,1,2,2,3,3,4,4,5,5,6,6],"right_children":[2,4,6,8,10,12,14,-1,-1,-1,-1,-1,-1,-1,-1],"split_conditions":[1E0,1E0,1E0,1E0,1E0,1E0,1E0,3.9854746E-2,1.3673118E-3,-2.609979E-3,5.133913E-4,-4.1776495E-3,-2.0857228E-3,-1.5157868E-2,-9.015194E-3],"split_indices":[1,2,2,3,3,3,3,0,0,0,0,0,0,0,0],"split_type":[0,0,0,0,0,0,0,0,0,0,0,0,0,0,0],"sum_hessian":[6.132773E1,2.8578201E1,3.2749527E1,1.3413335E1,1.5164866E1,1.4035546E1,1.871398E1,3.8595512E0,9.553783E0,6.814093E0,8.350774E0,6.855534E0,7.1800127E0,1.139557E1,7.3184094E0],"tree_param":{"num_deleted":"0","num_feature":"4","num_nodes":"15","size_leaf_vector":"1"}},{"base_weights":[7.9584114E-2,3.7722144E-2,7.91217E-2,-3.524221E-2,5.905598E-2,4.6923238E-1,2.15356E-2,6.157627E-3,7.6297164E-2,-3.584598E-2,7.7958475E-3],"categories":[],"categories_nodes":[],"categories_segments":[],"categories_sizes":[],"default_left":[0,0,0,0,0,0,0,0,0,0,0],"id":43,"left_children":[1,3,-1,-1,5,7,9,-1,-1,-1,-1],"loss_changes":[1.7922577E0,5.103558E-1,0E0,0E0,8.6132485E-1,5.155016E-1,1.1626987E0,0E0,0E0,0E0,0E0],"parents":[2147483647,0,0,1,1,4,4,5,5,6,6],"right_children":[2,4,-1,-1,6,8,10,-1,-1,-1,-1],"split_conditions":[5.4865664E-1,2.2834372E-2,7.91217E-2,-3.524221E-2,5.4897364E-2,3.9838932E-2,1.0762276E-1,6.157627E-3,7.6297164E-2,-3.584598E-2,7.7958475E-3],"split_indices":[0,0,0,0,0,0,0,0,0,0,0],"split_type":[0,0,0,0,0,0,0,0,0,0,0],"sum_hessian":[6.0164227E1,5.7816185E1,2.3480425E0,2.1929543E0,5.562323E1,3.6973524E0,5.1925877E1,2.055008E0,1.6423445E0,6.02122E0,4.590466E1],"tree_param":{"num_deleted":"0","num_feature":"4","num_nodes":"11","size_leaf_vector":"1"}},{"base_weights":[2.3809377E-2,-1.1969248E-2,4.5793477E-1,-3.7734676E-2,7.6155025E-3,7.193978E-2,5.266753E-3,4.3144637E-1,-2.9197868E-2,6.759664E-2,2.7852885E-3,-7.743961E-2,5.2068796E-4],"categories":[],"categories_nodes":[],"categories_segments":[],"categories_sizes":[],"default_left":[0,0,0,0,0,0,0,0,0,0,0,0,0],"id":44,"left_children":[1,3,5,-1,7,-1,-1,9,11,-1,-1,-1,-1],"loss_changes":[9.422371E-1,4.085539E-1,4.513896E-1,0E0,8.674398E-1,0E0,0E0,4.1952968E-1,1.3204696E0,0E0,0E0,0E0,0E0],"parents":[2147483647,0,0,1,1,2,2,4,4,7,7,8,8],"right_children":[2,4,6,-1,8,-1,-1,10,12,-1,-1,-1,-1],"split_conditions":[5.281993E-1,2.2834372E-2,5.567434E-1,-3.7734676E-2,5.4897364E-2,7.193978E-2,5.266753E-3,1E0,6.7630194E-2,6.759664E-2,2.7852885E-3,-7.743961E-2,5.2068796E-4],"split_indices":[0,0,0,0,0,0,0,3,0,0,0,0,0],"split_type":[0,0,0,0,0,0,0,0,0,0,0,0,0],"sum_hessian":[5.930976E1,5.5692287E1,3.617474E0,1.9039724E0,5.3788315E1,1.7277049E0,1.8897692E0,3.4419103E0,5.0346405E1,1.723093E0,1.7188171E0,1.2726529E0,4.9073753E1],"tree_param":{"num_deleted":"0","num_feature":"4","num_nodes":"13","size_leaf_vector":"1"}},{"base_weights":[1.0797997E-1,1.868224E-1,3.8368944E-2,4.381906E-2,2.9812431E-2,5.927169E-2,8.880245E-3,1.48167955E-2,-8.716443E-4,1.96697E-2,-4.4063423E-3,-9.130161E-3,1.1084278E-2],"categories":[],"categories_nodes":[],"categories_segments":[],"categories_sizes":[],"default_left":[0,0,0,0,0,0,0,0,0,0,0,0,0],"id":45,"left_children":[1,3,5,7,-1,9,11,-1,-1,-1,-1,-1,-1],"loss_changes":[3.1890196E-1,4.26237E-1,1.9698549E-2,7.393991E-2,0E0,2.7883688E-1,1.611635E-1,0E0,0E0,0E0,0E0,0E0,0E0],"parents":[2147483647,0,0,1,1,2,2,3,3,5,5,6,6],"right_children":[2,4,6,8,-1,10,12,-1,-1,-1,-1,-1,-1],"split_conditions":[1E0,1E0,1E0,1E0,2.9812431E-2,1E0,1E0,1.48167955E-2,-8.716443E-4,1.96697E-2,-4.4063423E-3,-9.130161E-3,1.1084278E-2],"split_indices":[1,2,3,3,0,2,2,0,0,0,0,0,0],"split_type":[0,0,0,0,0,0,0,0,0,0,0,0,0],"sum_hessian":[5.8411854E1,2.6600243E1,3.1811611E1,1.2252121E1,1.4348121E1,1.8024887E1,1.3786724E1,3.4932654E0,8.758856E0,7.3485575E0,1.0676329E1,7.0068245E0,6.7799E0],"tree_param":{"num_deleted":"0","num_feature":"4","num_nodes":"13","size_leaf_vector":"1"}},{"base_weights":[8.1021145E-2,1.8507717E-2,-1.0770512E-2,6.673913E-2,-7.1774505E-2,1.2818392E-3,1.0798737E-2,-6.916254E-4,-1.4313686E-2],"categories":[],"categories_nodes":[],"categories_segments":[],"categories_sizes":[],"default_left":[0,0,0,0,0,0,0,0,0],"id":46,"left_children":[1,-1,3,5,7,-1,-1,-1,-1],"loss_changes":[5.808977E-1,0E0,1.6152318E-1,3.2237627E-2,8.709088E-2,0E0,0E0,0E0,0E0],"parents":[2147483647,0,0,2,2,3,3,4,4],"right_children":[2,-1,4,6,8,-1,-1,-1,-1],"split_conditions":[1E0,1.8507717E-2,1E0,1E0,1E0,1.2818392E-3,1.0798737E-2,-6.916254E-4,-1.4313686E-2],"split_indices":[1,0,2,3,3,0,0,0,0],"split_type":[0,0,0,0,0,0,0,0,0],"sum_hessian":[5.9608887E1,2.7461714E1,3.2147175E1,1.4116813E1,1.8030363E1,6.6866374E0,7.4301753E0,1.0020273E1,8.010089E0],"tree_param":{"num_deleted":"0","num_feature":"4","num_nodes":"9","size_leaf_vector":"1"}},{"base_weights":[2.5841143E-2,-2.5468498E-1,1.0658647E-1,-2.7586943E-2,-8.397972E-2,5.73617E-1,5.597266E-2,-4.092098E-1,1.9049112E-1,2.18366E-2,7.41078E-2,-5.0338443E-2,1.0041409E-1,1.2525997E-2,-9.156774E-2,6.1258145E-2,-1.25878705E-2,5.885448E-2,5.114014E-3],"categories":[],"categories_nodes":[],"categories_segments":[],"categories_sizes":[],"default_left":[0,0,0,0,0,0,0,0,0,0,0,0,0,0,0,0,0,0,0],"id":47,"left_children":[1,3,5,7,-1,9,11,13,15,-1,-1,-1,17,-1,-1,-1,-1,-1,-1],"loss_changes":[1.3810326E0,1.7911564E0,1.0816556E0,9.8261553E-1,0E0,1.05813265E-1,1.1348362E0,1.2707047E0,1.0919527E0,0E0,0E0,0E0,9.618473E-1,0E0,0E0,0E0,0E0,0E0,0E0],"parents":[2147483647,0,0,1,1,2,2,3,3,5,5,6,6,7,7,8,8,12,12],"right_children":[2,4,6,8,-1,10,12,14,16,-1,-1,-1,18,-1,-1,-1,-1,-1,-1],"split_conditions":[1.083315E-1,7.992399E-2,1.2542245E-1,3.0425787E-2,-8.397972E-2,1.15441285E-1,1.4193034E-1,1E0,5.4897364E-2,2.18366E-2,7.41078E-2,-5.0338443E-2,1.7558523E-1,1.2525997E-2,-9.156774E-2,6.1258145E-2,-1.25878705E-2,5.885448E-2,5.114014E-3],"split_indices":[0,0,0,0,0,0,0,2,0,0,0,0,0,0,0,0,0,0,0],"split_type":[0,0,0,0,0,0,0,0,0,0,0,0,0,0,0,0,0,0,0],"sum_hessian":[5.877115E1,1.2654076E1,4.6117073E1,9.870294E0,2.7837822E0,3.4988456E0,4.2618225E1,3.2705684E0,6.5997252E0,1.8590491E0,1.6397966E0,2.3767397E0,4.0241486E1,1.9575093E0,1.3130591E0,2.4263225E0,4.173403E0,2.6862185E0,3.7555267E1],"tree_param":{"num_deleted":"0","num_feature":"4","num_nodes":"19","size_leaf_vector":"1"}},{"base_weights":[1.9865341E-2,-2.523091E-2,5.1377934E-1,3.2151036E-3,-7.359556E-2,7.668201E-2,9.179913E-3,-3.4011237E-2,5.509681E-1,-8.60407E-4,-4.7272254E-2,1.9834613E-2,6.5728135E-2],"categories":[],"categories_nodes":[],"categories_segments":[],"categories_sizes":[],"default_left":[0,0,0,0,0,0,0,0,0,0,0,0,0],"id":48,"left_children":[1,3,5,7,-1,-1,-1,9,11,-1,-1,-1,-1],"loss_changes":[1.324305E0,1.1123271E0,4.6056163E-1,1.1154485E0,0E0,0E0,0E0,5.6778365E-1,1.2099743E-4,0E0,0E0,0E0,0E0],"parents":[2147483647,0,0,1,1,2,2,3,3,7,7,8,8],"right_children":[2,4,6,8,-1,-1,-1,10,12,-1,-1,-1,-1],"split_conditions":[5.236855E-1,5.082902E-1,5.567434E-1,4.821076E-1,-7.359556E-2,7.668201E-2,9.179913E-3,4.5657572E-1,4.9519405E-1,-8.60407E-4,-4.7272254E-2,1.9834613E-2,6.5728135E-2],"split_indices":[0,0,0,0,0,0,0,0,0,0,0,0,0],"split_type":[0,0,0,0,0,0,0,0,0,0,0,0,0],"sum_hessian":[5.787408E1,5.3901573E1,3.9725053E0,5.278441E1,1.1171647E0,1.9725E0,2.0000055E0,5.030359E1,2.4808204E0,4.8513622E1,1.7899662E0,1.2385263E0,1.2422941E0],"tree_param":{"num_deleted":"0","num_feature":"4","num_nodes":"13","size_leaf_vector":"1"}},{"base_weights":[-4.071763E-2,-6.0123015E-2,5.4823752E-2,-2.9343821E-2,-2.900196E-1,-7.0359804E-2,4.0996104E-1,2.089549E-2,-5.9327204E-2,-3.969259E-3,-7.182564E-2,6.135419E-2,1.5189471E-2],"categories":[],"categories_nodes":[],"categories_segments":[],"categories_sizes":[],"default_left":[0,0,0,0,0,0,0,0,0,0,0,0,0],"id":49,"left_children":[1,3,-1,5,7,9,11,-1,-1,-1,-1,-1,-1],"loss_changes":[7.168882E-1,4.0780234E-1,0E0,9.8382527E-1,1.1580943E0,9.515901E-1,1.5227675E-1,0E0,0E0,0E0,0E0,0E0,0E0],"parents":[2147483647,0,0,1,1,3,3,4,4,5,5,6,6],"right_children":[2,4,-1,6,8,10,12,-1,-1,-1,-1,-1,-1],"split_conditions":[5.688744E-1,4.943313E-1,5.4823752E-2,4.517865E-1,1E0,4.3550965E-1,1E0,2.089549E-2,-5.9327204E-2,-3.969259E-3,-7.182564E-2,6.135419E-2,1.5189471E-2],"split_indices":[0,0,0,0,2,0,1,0,0,0,0,0,0],"split_type":[0,0,0,0,0,0,0,0,0,0,0,0,0],"sum_hessian":[5.884185E1,5.7834194E1,1.0076536E0,5.199994E1,5.834257E0,4.8327637E1,3.672303E0,2.322971E0,3.511286E0,4.7156803E1,1.1708328E0,1.2828457E0,2.3894572E0],"tree_param":{"num_deleted":"0","num_feature":"4","num_nodes":"13","size_leaf_vector":"1"}},{"base_weights":[-6.171215E-2,6.2186457E-2,-1.6520956E-1,-1.06367595E-1,4.6555862E-1,-1.05579026E-1,-5.0779545E-1,1.13332845E-1,-3.9694336E-1,9.153686E-2,5.783857E-2,-1.8476833E-1,2.634367E-1,-8.170544E-2,1.7074723E-3,-1.0365961E-2,7.368653E-2,-6.3681014E-2,-6.70606E-3,-5.36806E-2,3.866211E-2,-1.0839712E-2,-9.744315E-2,6.309918E-2,3.2796108E-3],"categories":[],"categories_nodes":[],"categories_segments":[],"categories_sizes":[],"default_left":[0,0,0,0,0,0,0,0,0,0,0,0,0,0,0,0,0,0,0,0,0,0,0,0,0],"id":50,"left_children":[1,3,5,7,9,11,13,15,17,-1,19,21,23,-1,-1,-1,-1,-1,-1,-1,-1,-1,-1,-1,-1],"loss_changes":[8.0072176E-1,2.0064373E0,6.380928E-1,1.3928893E0,1.5368352E0,9.2832756E-1,7.8617084E-1,1.8084031E0,6.941917E-1,0E0,1.3052148E0,1.4244709E0,4.6511933E-1,0E0,0E0,0E0,0E0,0E0,0E0,0E0,0E0,0E0,0E0,0E0,0E0],"parents":[2147483647,0,0,1,1,2,2,3,3,4,4,5,5,6,6,7,7,8,8,10,10,11,11,12,12],"right_children":[2,4,6,8,10,12,14,16,18,-1,20,22,24,-1,-1,-1,-1,-1,-1,-1,-1,-1,-1,-1,-1],"split_conditions":[1E0,3.1616232E-1,4.943313E-1,1.6977172E-1,4.4506258E-1,3.84943E-1,5.4865664E-1,1.2880576E-1,2.376496E-1,9.153686E-2,4.7972217E-1,3.7753576E-1,4.2652893E-1,-8.170544E-2,1.7074723E-3,-1.0365961E-2,7.368653E-2,-6.3681014E-2,-6.70606E-3,-5.36806E-2,3.866211E-2,-1.0839712E-2,-9.744315E-2,6.309918E-2,3.2796108E-3],"split_indices":[2,0,0,0,0,0,0,0,0,0,0,0,0,0,0,0,0,0,0,0,0,0,0,0,0],"split_type":[0,0,0,0,0,0,0,0,0,0,0,0,0,0,0,0,0,0,0,0,0,0,0,0,0],"sum_hessian":[6.0642094E1,2.7782415E1,3.285968E1,2.0113884E1,7.668532E0,2.910231E1,3.7573678E0,1.1801158E1,8.312726E0,3.0540805E0,4.6144514E0,2.4371563E1,4.7307467E0,2.0140119E0,1.7433559E0,9.373045E0,2.428113E0,4.27433E0,4.0383964E0,1.4176836E0,3.1967676E0,2.3259338E1,1.1122259E0,1.1547241E0,3.5760226E0],"tree_param":{"num_deleted":"0","num_feature":"4","num_nodes":"25","size_leaf_vector":"1"}},{"base_weights":[4.2806045E-4,6.6446304E-2,-5.5220906E-2,1.6307944E-1,-1.0410933E-2,-1.2512949E-2,2.77128E-4,4.2458456E-2,-1.13534115E-4,-1.4266509E-2,1.3134986E-2,5.4829936E-3,-6.77519E-3],"categories":[],"categories_nodes":[],"categories_segments":[],"categories_sizes":[],"default_left":[0,0,0,0,0,0,0,0,0,0,0,0,0],"id":51,"left_children":[1,3,5,7,9,-1,11,-1,-1,-1,-1,-1,-1],"loss_changes":[2.172981E-1,2.0259875E-1,1.2456932E-1,5.1766276E-1,3.1884214E-1,0E0,7.382322E-2,0E0,0E0,0E0,0E0,0E0,0E0],"parents":[2147483647,0,0,1,1,2,2,3,3,4,4,6,6],"right_children":[2,4,6,8,10,-1,12,-1,-1,-1,-1,-1,-1],"split_conditions":[1E0,1E0,1E0,1E0,1E0,-1.2512949E-2,1E0,4.2458456E-2,-1.13534115E-4,-1.4266509E-2,1.3134986E-2,5.4829936E-3,-6.77519E-3],"split_indices":[2,3,1,1,1,0,3,0,0,0,0,0,0],"split_type":[0,0,0,0,0,0,0,0,0,0,0,0,0],"sum_hessian":[5.714855E1,2.6050241E1,3.1098307E1,1.1043423E1,1.5006819E1,1.3207145E1,1.7891161E1,3.6482286E0,7.3951936E0,7.760432E0,7.2463875E0,1.0036702E1,7.8544583E0],"tree_param":{"num_deleted":"0","num_feature":"4","num_nodes":"13","size_leaf_vector":"1"}},{"base_weights":[-1.981436E-4,-8.130447E-2,1.086985E-1,-3.240884E-2,-5.038043E-1,2.7529198E-1,-2.089633E-2,-8.7648295E-2,3.592653E-1,-6.119584E-2,-1.3206959E-2,4.5867229E-1,-3.0944597E-3,-3.1839198E-1,6.674535E-2,-2.7294399E-3,-8.086439E-2,-2.5292283E-2,7.876574E-2,1.29021285E-2,7.715941E-2,-4.183849E-2,6.630357E-2,7.231691E-3,-6.473034E-2,5.28406E-2,-1.2383743E-2],"categories":[],"categories_nodes":[],"categories_segments":[],"categories_sizes":[],"default_left":[0,0,0,0,0,0,0,0,0,0,0,0,0,0,0,0,0,0,0,0,0,0,0,0,0,0,0],"id":52,"left_children":[1,3,5,7,9,11,13,15,17,-1,-1,19,21,23,25,-1,-1,-1,-1,-1,-1,-1,-1,-1,-1,-1,-1],"loss_changes":[5.3001034E-1,6.941463E-1,5.588076E-1,7.215221E-1,5.9835494E-2,5.7721496E-1,4.211526E-1,1.229193E0,1.2844768E0,0E0,0E0,6.0256755E-1,1.7912941E0,5.1760924E-1,1.1805701E0,0E0,0E0,0E0,0E0,0E0,0E0,0E0,0E0,0E0,0E0,0E0,0E0],"parents":[2147483647,0,0,1,1,2,2,3,3,4,4,5,5,6,6,7,7,8,8,11,11,12,12,13,13,14,14],"right_children":[2,4,6,8,10,12,14,16,18,-1,-1,20,22,24,26,-1,-1,-1,-1,-1,-1,-1,-1,-1,-1,-1,-1],"split_conditions":[2.7257445E-1,2.559897E-1,1E0,2.2759177E-1,2.6418808E-1,4.3639487E-1,3.402335E-1,2.2331117E-1,1E0,-6.119584E-2,-1.3206959E-2,3.5399503E-1,5.162002E-1,3.086798E-1,4.0588272E-1,-2.7294399E-3,-8.086439E-2,-2.5292283E-2,7.876574E-2,1.29021285E-2,7.715941E-2,-4.183849E-2,6.630357E-2,7.231691E-3,-6.473034E-2,5.28406E-2,-1.2383743E-2],"split_indices":[0,0,1,0,0,0,0,0,1,0,0,0,0,0,0,0,0,0,0,0,0,0,0,0,0,0,0],"split_type":[0,0,0,0,0,0,0,0,0,0,0,0,0,0,0,0,0,0,0,0,0,0,0,0,0,0,0],"sum_hessian":[5.800821E1,3.3391537E1,2.461667E1,3.0893019E1,2.4985206E0,1.027892E1,1.43377495E1,2.7754854E1,3.1381629E0,1.4348395E0,1.0636811E0,5.8064513E0,4.472469E0,2.663554E0,1.1674195E1,2.6568672E1,1.1861832E0,1.4605635E0,1.6775993E0,3.5154126E0,2.2910388E0,2.9840305E0,1.4884385E0,1.5739799E0,1.0895742E0,2.89321E0,8.780986E0],"tree_param":{"num_deleted":"0","num_feature":"4","num_nodes":"27","size_leaf_vector":"1"}},{"base_weights":[-3.3265274E-2,-3.3478862E-1,-3.6215612E-3,-5.1925117E-1,2.8540834E-3,4.969818E-1,-5.3757604E-2,-1.7082034E-2,-6.959583E-2,1.3893823E-1,9.50936E-2,-3.2329142E-1,-2.1927407E-2,6.765951E-2,-4.7339663E-2,-3.0521227E-3,-6.0645085E-2,1.7631238E-2,-6.5175416E-3],"categories":[],"categories_nodes":[],"categories_segments":[],"categories_sizes":[],"default_left":[0,0,0,0,0,0,0,0,0,0,0,0,0,0,0,0,0,0,0],"id":53,"left_children":[1,3,5,7,-1,9,11,-1,-1,13,-1,15,17,-1,-1,-1,-1,-1,-1],"loss_changes":[5.426766E-1,3.791359E-1,1.4426004E0,1.0630983E-1,0E0,7.184534E-1,4.4058335E-1,0E0,0E0,1.6690558E0,0E0,4.3235046E-1,4.2080495E-1,0E0,0E0,0E0,0E0,0E0,0E0],"parents":[2147483647,0,0,1,1,2,2,3,3,5,5,6,6,9,9,11,11,12,12],"right_children":[2,4,6,8,-1,10,12,-1,-1,14,-1,16,18,-1,-1,-1,-1,-1,-1],"split_conditions":[4.0562116E-2,1E0,7.841055E-2,1E0,2.8540834E-3,7.005389E-2,1.1228603E-1,-1.7082034E-2,-6.959583E-2,5.4897364E-2,9.50936E-2,9.960669E-2,1.7558523E-1,6.765951E-2,-4.7339663E-2,-3.0521227E-3,-6.0645085E-2,1.7631238E-2,-6.5175416E-3],"split_indices":[0,1,0,2,0,0,0,0,0,0,0,0,0,0,0,0,0,0,0],"split_type":[0,0,0,0,0,0,0,0,0,0,0,0,0,0,0,0,0,0,0],"sum_hessian":[5.984947E1,4.435875E0,5.5413593E1,2.657509E0,1.7783656E0,4.233168E0,5.1180428E1,1.5560259E0,1.1014833E0,3.0967534E0,1.1364149E0,4.4385586E0,4.6741867E1,1.5930461E0,1.5037073E0,2.7268965E0,1.711662E0,7.8199735E0,3.8921894E1],"tree_param":{"num_deleted":"0","num_feature":"4","num_nodes":"19","size_leaf_vector":"1"}},{"base_weights":[-7.3128934E-3,1.3516973E-1,-1.1538474E-1,-2.4221398E-2,4.674564E-1,-7.0492975E-2,-6.229803E-2,3.1100035E-1,-4.23738E-1,7.6721944E-2,2.681186E-1,4.7773102E-1,-1.3587362E-1,2.8273847E-3,8.2610734E-2,-1.1998671E-2,-5.712044E-2,-3.354479E-2,5.2957613E-2,9.865688E-3,6.281119E-2,-5.5850428E-2,-2.3333798E-3],"categories":[],"categories_nodes":[],"categories_segments":[],"categories_sizes":[],"default_left":[0,0,0,0,0,0,0,0,0,0,0,0,0,0,0,0,0,0,0,0,0,0,0],"id":54,"left_children":[1,3,5,7,9,-1,11,13,15,-1,17,19,21,-1,-1,-1,-1,-1,-1,-1,-1,-1,-1],"loss_changes":[9.511996E-1,1.4237616E0,1.0543518E0,2.6728606E0,3.1382537E-1,0E0,1.3876151E0,1.5631416E0,3.3818173E-1,0E0,1.2442889E0,1.7820358E-1,1.4175005E0,0E0,0E0,0E0,0E0,0E0,0E0,0E0,0E0,0E0,0E0],"parents":[2147483647,0,0,1,1,2,2,3,3,4,4,6,6,7,7,8,8,10,10,11,11,12,12],"right_children":[2,4,6,8,10,-1,12,14,16,-1,18,20,22,-1,-1,-1,-1,-1,-1,-1,-1,-1,-1],"split_conditions":[1E0,3.1616232E-1,3.9838932E-2,1.6154657E-1,4.0588272E-1,-7.0492975E-2,7.992399E-2,1.15441285E-1,2.2331117E-1,7.6721944E-2,4.517865E-1,7.005389E-2,1.5974234E-1,2.8273847E-3,8.2610734E-2,-1.1998671E-2,-5.712044E-2,-3.354479E-2,5.2957613E-2,9.865688E-3,6.281119E-2,-5.5850428E-2,-2.3333798E-3],"split_indices":[2,0,0,0,0,0,0,0,0,0,0,0,0,0,0,0,0,0,0,0,0,0,0],"split_type":[0,0,0,0,0,0,0,0,0,0,0,0,0,0,0,0,0,0,0,0,0,0,0],"sum_hessian":[5.9759914E1,2.5668139E1,3.4091778E1,1.7973652E1,7.6944866E0,1.8019302E0,3.228985E1,9.89371E0,8.079942E0,1.9353215E0,5.759165E0,3.213126E0,2.9076721E1,7.068768E0,2.824942E0,3.2334123E0,4.846529E0,1.6551986E0,4.103966E0,1.3829885E0,1.8301374E0,5.281166E0,2.3795555E1],"tree_param":{"num_deleted":"0","num_feature":"4","num_nodes":"23","size_leaf_vector":"1"}},{"base_weights":[-2.7463272E-2,1.364306E-2,-6.361288E-2,-3.916565E-3,4.142146E-3,-8.641909E-2,-3.4996234E-2,-5.133291E-3,-1.1626717E-2,-5.2045267E-3,-1.5315842E-3],"categories":[],"categories_nodes":[],"categories_segments":[],"categories_sizes":[],"default_left":[0,0,0,0,0,0,0,0,0,0,0],"id":55,"left_children":[1,3,5,-1,-1,7,9,-1,-1,-1,-1],"loss_changes":[8.7824054E-2,4.299748E-2,1.7411515E-2,0E0,0E0,1.1567831E-2,4.4263937E-3,0E0,0E0,0E0,0E0],"parents":[2147483647,0,0,1,1,2,2,5,5,6,6],"right_children":[2,4,6,-1,-1,8,10,-1,-1,-1,-1],"split_conditions":[1E0,1E0,1E0,-3.916565E-3,4.142146E-3,1E0,1E0,-5.133291E-3,-1.1626717E-2,-5.2045267E-3,-1.5315842E-3],"split_indices":[3,2,1,0,0,2,2,0,0,0,0],"split_type":[0,0,0,0,0,0,0,0,0,0,0],"sum_hessian":[5.7517815E1,2.7205067E1,3.0312748E1,9.236291E0,1.7968777E1,1.574488E1,1.4567867E1,8.487589E0,7.257291E0,6.9245973E0,7.6432705E0],"tree_param":{"num_deleted":"0","num_feature":"4","num_nodes":"11","size_leaf_vector":"1"}},{"base_weights":[2.0042455E-2,-3.3538535E-1,5.476713E-2,-5.3298015E-2,5.094066E-3,5.3669363E-2,3.4259137E-2,-3.9689496E-2,5.3377163E-2,5.5420186E-2,2.8512392E-3],"categories":[],"categories_nodes":[],"categories_segments":[],"categories_sizes":[],"default_left":[0,0,0,0,0,0,0,0,0,0,0],"id":56,"left_children":[1,3,5,-1,-1,-1,7,-1,9,-1,-1],"loss_changes":[7.490381E-1,4.4008708E-1,5.2314055E-1,0E0,0E0,0E0,4.631948E-1,0E0,6.345915E-1,0E0,0E0],"parents":[2147483647,0,0,1,1,2,2,6,6,8,8],"right_children":[2,4,6,-1,-1,-1,8,-1,10,-1,-1],"split_conditions":[4.449666E-2,1E0,5.4932445E-2,-5.3298015E-2,5.094066E-3,5.3669363E-2,7.005389E-2,-3.9689496E-2,7.841055E-2,5.5420186E-2,2.8512392E-3],"split_indices":[0,1,0,0,0,0,0,0,0,0,0],"split_type":[0,0,0,0,0,0,0,0,0,0,0],"sum_hessian":[5.8201355E1,4.4094615E0,5.3791893E1,2.666176E0,1.7432857E0,1.168268E0,5.2623627E1,1.3953404E0,5.1228287E1,1.416126E0,4.981216E1],"tree_param":{"num_deleted":"0","num_feature":"4","num_nodes":"11","size_leaf_vector":"1"}},{"base_weights":[2.5005346E-2,-1.9302376E-1,8.441612E-2,-1.5745366E-2,-3.367227E-1,1.8542905E-1,-9.4292514E-2,2.809798E-1,-3.218007E-1,-4.4691762E-1,1.0160214E-2,1.2376174E-1,6.223307E-2,-6.856158E-2,-4.1304925E-4,8.171838E-2,-2.9480437E-2,-4.761384E-2,-3.6492215E-3,-6.7547366E-2,7.334295E-4,2.1404233E-2,-3.836415E-2,6.955773E-2,-1.135398E-2],"categories":[],"categories_nodes":[],"categories_segments":[],"categories_sizes":[],"default_left":[0,0,0,0,0,0,0,0,0,0,0,0,0,0,0,0,0,0,0,0,0,0,0,0,0],"id":57,"left_children":[1,3,5,7,9,11,13,15,17,19,-1,21,-1,-1,23,-1,-1,-1,-1,-1,-1,-1,-1,-1,-1],"loss_changes":[7.7788395E-1,3.2318482E-1,8.6412716E-1,7.0994276E-1,3.8702965E-1,7.393631E-1,9.7672516E-1,1.4751167E0,1.5102229E-1,6.109731E-1,0E0,1.3556544E0,0E0,0E0,1.3536096E0,0E0,0E0,0E0,0E0,0E0,0E0,0E0,0E0,0E0,0E0],"parents":[2147483647,0,0,1,1,2,2,3,3,4,4,5,5,6,6,7,7,8,8,9,9,11,11,14,14],"right_children":[2,4,6,8,10,12,14,16,18,20,-1,22,-1,-1,24,-1,-1,-1,-1,-1,-1,-1,-1,-1,-1],"split_conditions":[1.083315E-1,1E0,3.7753576E-1,5.4897364E-2,8.7275974E-2,3.402335E-1,3.84943E-1,1E0,1E0,1E0,1.0160214E-2,3.086798E-1,6.223307E-2,-6.856158E-2,4.067242E-1,8.171838E-2,-2.9480437E-2,-4.761384E-2,-3.6492215E-3,-6.7547366E-2,7.334295E-4,2.1404233E-2,-3.836415E-2,6.955773E-2,-1.135398E-2],"split_indices":[0,3,0,0,0,0,0,2,2,2,0,0,0,0,0,0,0,0,0,0,0,0,0,0,0],"split_type":[0,0,0,0,0,0,0,0,0,0,0,0,0,0,0,0,0,0,0,0,0,0,0,0,0],"sum_hessian":[5.7795124E1,1.1894613E1,4.5900513E1,5.821868E0,6.0727453E0,2.9300913E1,1.6599598E1,2.9975908E0,2.8242772E0,4.8370953E0,1.2356501E0,2.680127E1,2.4996443E0,1.4107141E0,1.5188885E1,1.3350554E0,1.6625355E0,1.398762E0,1.4255152E0,2.8939884E0,1.9431069E0,2.3243748E1,3.5575218E0,1.4037755E0,1.3785109E1],"tree_param":{"num_deleted":"0","num_feature":"4","num_nodes":"25","size_leaf_vector":"1"}},{"base_weights":[4.0810745E-2,-1.1873703E-1,1.6194667E-1,2.1381114E-1,-2.5604615E-1,7.83984E-2,1.0330575E-1,-4.8654035E-2,5.4806405E-1,-1.819953E-1,-6.731718E-2,-2.1352854E-1,2.005674E-1,-2.4571758E-2,3.2067057E-2,1.2591436E-2,6.6297024E-2,-2.9733911E-2,4.2830538E-2,3.782369E-3,-4.759552E-2,4.4556495E-2,1.3951547E-3],"categories":[],"categories_nodes":[],"categories_segments":[],"categories_sizes":[],"default_left":[0,0,0,0,0,0,0,0,0,0,0,0,0,0,0,0,0,0,0,0,0,0,0],"id":58,"left_children":[1,3,5,7,9,-1,11,13,15,17,-1,19,21,-1,-1,-1,-1,-1,-1,-1,-1,-1,-1],"loss_changes":[1.1397871E0,1.2236547E0,1.1365983E0,7.3078054E-1,4.5118642E-1,0E0,1.0183276E0,4.728435E-1,9.171915E-2,1.3341691E0,0E0,5.4039E-1,1.1247361E0,0E0,0E0,0E0,0E0,0E0,0E0,0E0,0E0,0E0,0E0],"parents":[2147483647,0,0,1,1,2,2,3,3,4,4,6,6,7,7,8,8,9,9,11,11,12,12],"right_children":[2,4,6,8,10,-1,12,14,16,18,-1,20,22,-1,-1,-1,-1,-1,-1,-1,-1,-1,-1],"split_conditions":[2.1675843E-1,7.3880196E-2,2.2577271E-1,4.449666E-2,1.9791137E-1,7.83984E-2,2.7257445E-1,1E0,1E0,1.809867E-1,-6.731718E-2,2.5134218E-1,1E0,-2.4571758E-2,3.2067057E-2,1.2591436E-2,6.6297024E-2,-2.9733911E-2,4.2830538E-2,3.782369E-3,-4.759552E-2,4.4556495E-2,1.3951547E-3],"split_indices":[0,0,0,0,0,0,0,1,2,0,0,0,2,0,0,0,0,0,0,0,0,0,0],"split_type":[0,0,0,0,0,0,0,0,0,0,0,0,0,0,0,0,0,0,0,0,0,0,0],"sum_hessian":[5.697899E1,2.4599224E1,3.2379765E1,7.0259542E0,1.757327E1,1.7239221E0,3.065584E1,4.4142194E0,2.6117346E0,1.6143652E1,1.4296179E0,6.919581E0,2.373626E1,3.0966165E0,1.317603E0,1.0072043E0,1.6045303E0,1.4008848E1,2.1348045E0,3.9715245E0,2.9480567E0,9.662844E0,1.4073416E1],"tree_param":{"num_deleted":"0","num_feature":"4","num_nodes":"23","size_leaf_vector":"1"}},{"base_weights":[-3.584493E-2,-1.1532784E-1,1.2974362E-1,-8.5714675E-2,-4.904433E-2,5.5190224E-2,3.9645005E-2,-1.3237877E-1,2.1220751E-1,-5.8057524E-2,1.1569162E-1,-7.1770973E-3,-6.021879E-2,6.6613816E-2,-1.0692829E-2,6.498831E-2,2.8536173E-3],"categories":[],"categories_nodes":[],"categories_segments":[],"categories_sizes":[],"default_left":[0,0,0,0,0,0,0,0,0,0,0,0,0,0,0,0,0],"id":59,"left_children":[1,3,5,7,-1,-1,9,11,13,-1,15,-1,-1,-1,-1,-1,-1],"loss_changes":[7.8484803E-1,4.0288788E-1,7.176193E-1,5.610274E-1,0E0,0E0,8.736974E-1,9.180373E-1,8.789181E-1,0E0,7.2945607E-1,0E0,0E0,0E0,0E0,0E0,0E0],"parents":[2147483647,0,0,1,1,2,2,3,3,6,6,7,7,8,8,10,10],"right_children":[2,4,6,8,-1,-1,10,12,14,-1,16,-1,-1,-1,-1,-1,-1],"split_conditions":[3.402335E-1,3.246863E-1,3.811357E-1,2.7257445E-1,-4.904433E-2,5.5190224E-2,3.84943E-1,2.5186256E-1,1E0,-5.8057524E-2,4.0588272E-1,-7.1770973E-3,-6.021879E-2,6.6613816E-2,-1.0692829E-2,6.498831E-2,2.8536173E-3],"split_indices":[0,0,0,0,0,0,0,0,1,0,0,0,0,0,0,0,0],"split_type":[0,0,0,0,0,0,0,0,0,0,0,0,0,0,0,0,0],"sum_hessian":[5.7495407E1,3.905327E1,1.8442137E1,3.7334435E1,1.7188331E0,2.342197E0,1.6099941E1,3.2758995E1,4.5754414E0,1.033824E0,1.5066116E1,3.0036852E1,2.7221427E0,1.4399602E0,3.1354814E0,1.2076452E0,1.3858471E1],"tree_param":{"num_deleted":"0","num_feature":"4","num_nodes":"17","size_leaf_vector":"1"}},{"base_weights":[-3.8379822E-2,4.9589396E-2,-1.09406054E-1,8.887239E-2,1.9989828E-2,-2.3333149E-3,-1.7613788E-1,1.920283E-2,1.9056347E-3,-2.698349E-4,4.23242E-3,-2.7721802E-2,-3.3005474E-3],"categories":[],"categories_nodes":[],"categories_segments":[],"categories_sizes":[],"default_left":[0,0,0,0,0,0,0,0,0,0,0,0,0],"id":60,"left_children":[1,3,5,7,9,-1,11,-1,-1,-1,-1,-1,-1],"loss_changes":[3.77769E-1,2.9977672E-2,1.870642E-1,7.876626E-2,8.65986E-3,0E0,2.598868E-1,0E0,0E0,0E0,0E0,0E0,0E0],"parents":[2147483647,0,0,1,1,2,2,3,3,4,4,6,6],"right_children":[2,4,6,8,10,-1,12,-1,-1,-1,-1,-1,-1],"split_conditions":[1E0,1E0,1E0,1E0,1E0,-2.3333149E-3,1E0,1.920283E-2,1.9056347E-3,-2.698349E-4,4.23242E-3,-2.7721802E-2,-3.3005474E-3],"split_indices":[1,3,2,2,2,0,3,0,0,0,0,0,0],"split_type":[0,0,0,0,0,0,0,0,0,0,0,0,0],"sum_hessian":[5.859289E1,2.6309362E1,3.228353E1,1.0444922E1,1.5864441E1,1.4688053E1,1.7595476E1,3.509302E0,6.9356203E0,8.306024E0,7.5584173E0,9.763615E0,7.8318615E0],"tree_param":{"num_deleted":"0","num_feature":"4","num_nodes":"13","size_leaf_vector":"1"}},{"base_weights":[-2.6689695E-2,1.18065916E-1,-1.3947234E-1,7.540117E-2,5.6652375E-2,-3.1082943E-1,-5.48027E-2,1.3808821E-1,-2.624305E-1,6.3781984E-2,-5.7874703E-1,4.3599527E-2,-1.2315749E-1,4.4616195E-3,5.8522563E-2,-4.5177113E-2,9.272309E-4,-3.262619E-2,6.62381E-2,-8.564254E-3,-1.2247007E-1,-5.1549412E-2,-4.368556E-3],"categories":[],"categories_nodes":[],"categories_segments":[],"categories_sizes":[],"default_left":[0,0,0,0,0,0,0,0,0,0,0,0,0,0,0,0,0,0,0,0,0,0,0],"id":61,"left_children":[1,3,5,7,-1,9,11,13,15,17,19,-1,21,-1,-1,-1,-1,-1,-1,-1,-1,-1,-1],"loss_changes":[9.788888E-1,4.6159086E-1,4.7035813E-1,5.703673E-1,0E0,1.1304276E0,8.4871423E-1,8.904103E-1,2.2500256E-1,1.4871305E0,1.9500799E0,0E0,6.5035266E-1,0E0,0E0,0E0,0E0,0E0,0E0,0E0,0E0,0E0,0E0],"parents":[2147483647,0,0,1,1,2,2,3,3,5,5,6,6,7,7,8,8,9,9,10,10,12,12],"right_children":[2,4,6,8,-1,10,12,14,16,18,20,-1,22,-1,-1,-1,-1,-1,-1,-1,-1,-1,-1],"split_conditions":[1E0,5.236855E-1,1.5974234E-1,4.3639487E-1,5.6652375E-2,1E0,1.9329798E-1,3.1616232E-1,4.7972217E-1,1.1033364E-1,1.2542245E-1,4.3599527E-2,2.2759177E-1,4.4616195E-3,5.8522563E-2,-4.5177113E-2,9.272309E-4,-3.262619E-2,6.62381E-2,-8.564254E-3,-1.2247007E-1,-5.1549412E-2,-4.368556E-3],"split_indices":[2,0,0,0,0,3,0,0,0,0,0,0,0,0,0,0,0,0,0,0,0,0,0],"split_type":[0,0,0,0,0,0,0,0,0,0,0,0,0,0,0,0,0,0,0,0,0,0,0],"sum_hessian":[5.7950546E1,2.5357523E1,3.2593025E1,2.4221323E1,1.1361995E0,9.895371E0,2.2697653E1,2.0929045E1,3.2922792E0,4.4438143E0,5.4515567E0,2.1172261E0,2.0580427E1,1.8220016E1,2.709028E0,1.5496441E0,1.742635E0,2.9660861E0,1.4777281E0,3.73383E0,1.7177268E0,2.542438E0,1.8037989E1],"tree_param":{"num_deleted":"0","num_feature":"4","num_nodes":"23","size_leaf_vector":"1"}},{"base_weights":[-4.156136E-2,-6.396251E-2,5.8089465E-2,1.855997E-1,-9.360966E-2,-3.446032E-2,4.906374E-1,-3.1894028E-1,-5.7910293E-2,1.6968248E-2,6.8492256E-2,-6.0597915E-2,4.4579515E-3,2.5744779E-2,-8.698879E-3],"categories":[],"categories_nodes":[],"categories_segments":[],"categories_sizes":[],"default_left":[0,0,0,0,0,0,0,0,0,0,0,0,0,0,0],"id":62,"left_children":[1,3,-1,5,7,-1,9,11,13,-1,-1,-1,-1,-1,-1],"loss_changes":[8.587529E-1,4.4484973E-1,0E0,1.2154964E0,4.0228963E-1,0E0,1.6561699E-1,7.5030047E-1,4.4765538E-1,0E0,0E0,0E0,0E0,0E0,0E0],"parents":[2147483647,0,0,1,1,3,3,4,4,6,6,7,7,8,8],"right_children":[2,4,-1,6,8,-1,10,12,14,-1,-1,-1,-1,-1,-1],"split_conditions":[5.619859E-1,5.4897364E-2,5.8089465E-2,2.2834372E-2,1.083315E-1,-3.446032E-2,1E0,1E0,1.18705265E-1,1.6968248E-2,6.8492256E-2,-6.0597915E-2,4.4579515E-3,2.5744779E-2,-8.698879E-3],"split_indices":[0,0,0,0,0,0,2,2,0,0,0,0,0,0,0],"split_type":[0,0,0,0,0,0,0,0,0,0,0,0,0,0,0],"sum_hessian":[5.7922344E1,5.6776302E1,1.1460428E0,5.4700994E0,5.1306202E1,1.9503614E0,3.5197382E0,5.9317255E0,4.5374477E1,2.033616E0,1.4861219E0,2.941841E0,2.9898844E0,3.1676428E0,4.2206837E1],"tree_param":{"num_deleted":"0","num_feature":"4","num_nodes":"15","size_leaf_vector":"1"}},{"base_weights":[-1.25626875E-2,-4.1326698E-2,2.637348E-1,-1.421407E-2,-4.9903296E-2,6.0720183E-2,3.3533994E-2,-3.7399393E-2,5.8468025E-2,3.283262E-2,-2.179354E-2,5.761068E-3,-1.1656071E-2],"categories":[],"categories_nodes":[],"categories_segments":[],"categories_sizes":[],"default_left":[0,0,0,0,0,0,0,0,0,0,0,0,0],"id":63,"left_children":[1,3,5,7,-1,-1,9,11,-1,-1,-1,-1,-1],"loss_changes":[4.7771043E-1,6.638159E-1,4.2824307E-1,7.4488145E-1,0E0,0E0,4.018429E-1,3.908096E-1,0E0,0E0,0E0,0E0,0E0],"parents":[2147483647,0,0,1,1,2,2,3,3,6,6,7,7],"right_children":[2,4,6,8,-1,-1,10,12,-1,-1,-1,-1,-1],"split_conditions":[5.162002E-1,4.943313E-1,1E0,4.821076E-1,-4.9903296E-2,6.0720183E-2,5.455076E-1,1E0,5.8468025E-2,3.283262E-2,-2.179354E-2,5.761068E-3,-1.1656071E-2],"split_indices":[0,0,1,0,0,0,0,1,0,0,0,0,0],"split_type":[0,0,0,0,0,0,0,0,0,0,0,0,0],"sum_hessian":[5.7737423E1,5.3063644E1,4.6737757E0,5.106955E1,1.9940944E0,1.218311E0,3.4554646E0,5.0068764E1,1.0007869E0,1.4500139E0,2.0054507E0,2.2880108E1,2.7188656E1],"tree_param":{"num_deleted":"0","num_feature":"4","num_nodes":"13","size_leaf_vector":"1"}},{"base_weights":[2.6378637E-2,-3.3795692E-2,7.488182E-2,5.8068775E-2,-9.458786E-2,4.4640056E-3,1.5941314E-1,1.8982485E-2,-2.8183786E-3,-5.6928284E-3,-1.253445E-2,1.4027307E-2,-9.063865E-3,1.4368524E-3,2.7515013E-2],"categories":[],"categories_nodes":[],"categories_segments":[],"categories_sizes":[],"default_left":[0,0,0,0,0,0,0,0,0,0,0,0,0,0,0],"id":64,"left_children":[1,3,5,7,9,11,13,-1,-1,-1,-1,-1,-1,-1,-1],"loss_changes":[1.6973728E-1,1.5213054E-1,1.8995757E-1,1.3122134E-1,1.1606917E-2,2.5170135E-1,2.3993272E-1,0E0,0E0,0E0,0E0,0E0,0E0,0E0,0E0],"parents":[2147483647,0,0,1,1,2,2,3,3,4,4,5,5,6,6],"right_children":[2,4,6,8,10,12,14,-1,-1,-1,-1,-1,-1,-1,-1],"split_conditions":[1E0,1E0,1E0,1E0,1E0,1E0,1E0,1.8982485E-2,-2.8183786E-3,-5.6928284E-3,-1.253445E-2,1.4027307E-2,-9.063865E-3,1.4368524E-3,2.7515013E-2],"split_indices":[2,3,3,1,1,1,1,0,0,0,0,0,0,0,0],"split_type":[0,0,0,0,0,0,0,0,0,0,0,0,0,0,0],"sum_hessian":[5.628909E1,2.5257364E1,3.1031725E1,1.0076034E1,1.5181331E1,1.7503473E1,1.3528252E1,3.511381E0,6.5646524E0,8.106435E0,7.0748954E0,7.013314E0,1.049016E1,6.502853E0,7.0253987E0],"tree_param":{"num_deleted":"0","num_feature":"4","num_nodes":"15","size_leaf_vector":"1"}},{"base_weights":[1.7385429E-2,-2.4596592E-2,3.323098E-1,-9.279866E-3,-4.127459E-2,7.164357E-2,6.527031E-2,-3.955908E-2,1.8485923E-1,-1.5383156E-2,2.3309715E-1,-6.662778E-4,-4.47804E-2,7.144253E-2,-5.455434E-3,5.8904476E-2,-1.7258288E-2],"categories":[],"categories_nodes":[],"categories_segments":[],"categories_sizes":[],"default_left":[0,0,0,0,0,0,0,0,0,0,0,0,0,0,0,0,0],"id":65,"left_children":[1,3,5,7,-1,-1,9,11,13,-1,15,-1,-1,-1,-1,-1,-1],"loss_changes":[7.93983E-1,3.1349668E-1,6.7744994E-1,3.1517676E-1,0E0,0E0,2.2946091E-1,6.1652714E-1,9.5721734E-1,0E0,5.8958524E-1,0E0,0E0,0E0,0E0,0E0,0E0],"parents":[2147483647,0,0,1,1,2,2,3,3,6,6,7,7,8,8,10,10],"right_children":[2,4,6,8,-1,-1,10,12,14,-1,16,-1,-1,-1,-1,-1,-1],"split_conditions":[4.9833152E-1,4.8980287E-1,1E0,4.1132468E-1,-4.127459E-2,7.164357E-2,5.281993E-1,3.7712017E-1,4.3639487E-1,-1.5383156E-2,5.567434E-1,-6.662778E-4,-4.47804E-2,7.144253E-2,-5.455434E-3,5.8904476E-2,-1.7258288E-2],"split_indices":[0,0,1,0,0,0,0,0,0,0,0,0,0,0,0,0,0],"split_type":[0,0,0,0,0,0,0,0,0,0,0,0,0,0,0,0,0],"sum_hessian":[5.843572E1,5.2375523E1,6.0601935E0,5.137224E1,1.0032878E0,1.7951121E0,4.2650814E0,4.5129738E1,6.2424984E0,1.8861108E0,2.3789706E0,4.2704906E1,2.4248333E0,1.3258182E0,4.9166803E0,1.026402E0,1.3525686E0],"tree_param":{"num_deleted":"0","num_feature":"4","num_nodes":"17","size_leaf_vector":"1"}},{"base_weights":[7.312898E-7,-2.3989948E-2,4.4146154E-2,8.424176E-3,-5.190646E-1,-1.598606E-2,6.3273706E-2,-7.41726E-2,-1.106292E-2,2.5219705E-3,-1.7232683E-2],"categories":[],"categories_nodes":[],"categories_segments":[],"categories_sizes":[],"default_left":[0,0,0,0,0,0,0,0,0,0,0],"id":66,"left_children":[1,3,-1,5,7,9,-1,-1,-1,-1,-1],"loss_changes":[6.3276184E-1,9.137174E-1,0E0,8.356156E-1,2.3607028E-1,3.464569E-1,0E0,0E0,0E0,0E0,0E0],"parents":[2147483647,0,0,1,1,3,3,4,4,5,5],"right_children":[2,4,-1,6,8,10,-1,-1,-1,-1,-1],"split_conditions":[5.4865664E-1,5.082902E-1,4.4146154E-2,4.9833152E-1,5.236855E-1,3.7753576E-1,6.3273706E-2,-7.41726E-2,-1.106292E-2,2.5219705E-3,-1.7232683E-2],"split_indices":[0,0,0,0,0,0,0,0,0,0,0],"split_type":[0,0,0,0,0,0,0,0,0,0,0],"sum_hessian":[5.7745586E1,5.5666134E1,2.079454E0,5.3168034E1,2.4980977E0,5.2105152E1,1.0628842E0,1.088614E0,1.4094836E0,4.190041E1,1.0204743E1],"tree_param":{"num_deleted":"0","num_feature":"4","num_nodes":"11","size_leaf_vector":"1"}},{"base_weights":[-3.5002146E-2,-4.841468E-1,5.192107E-3,-4.6922583E-2,-8.168527E-2,5.461789E-2,-1.8504446E-2,3.4741838E-2,-4.0063392E-2,-6.727126E-2,7.0555354E-3,5.6658097E-2,-1.6113941E-3],"categories":[],"categories_nodes":[],"categories_segments":[],"categories_sizes":[],"default_left":[0,0,0,0,0,0,0,0,0,0,0,0,0],"id":67,"left_children":[1,3,5,7,-1,-1,9,-1,-1,-1,11,-1,-1],"loss_changes":[1.0520715E0,6.578789E-1,7.068663E-1,5.7564354E-1,0E0,0E0,8.9162153E-1,0E0,0E0,0E0,6.8368363E-1,0E0,0E0],"parents":[2147483647,0,0,1,1,2,2,3,3,6,6,10,10],"right_children":[2,4,6,8,-1,-1,10,-1,-1,-1,12,-1,-1],"split_conditions":[4.0562116E-2,1E0,5.4897364E-2,2.000354E-2,-8.168527E-2,5.461789E-2,6.7630194E-2,3.4741838E-2,-4.0063392E-2,-6.727126E-2,7.3880196E-2,5.6658097E-2,-1.6113941E-3],"split_indices":[0,3,0,0,0,0,0,0,0,0,0,0,0],"split_type":[0,0,0,0,0,0,0,0,0,0,0,0,0],"sum_hessian":[5.7137463E1,3.7860162E0,5.3351448E1,2.1291003E0,1.6569161E0,1.3135912E0,5.2037857E1,1.0151428E0,